460 32
akun 0.010553173 -0.003836229 0.0023090458 0.010606573 -0.013590872 2.840468e-06 -0.00240563 -0.00088716805 0.010120835 0.0058946502 0.015047712 0.00617629 -0.009675055 -0.008083896 0.00514221 -0.013819468 0.01393866 0.012460062 0.015644247 0.012107738 0.0070534 0.014386025 0.004368665 0.0009883627 -0.007929309 -0.010382321 0.00065286935 -0.011307072 0.0036064007 0.011935459 -0.0013248834 -0.009130483
sumber 0.005119084 0.007969098 0.013198954 -0.012093032 0.004644851 0.0038706388 0.0002957346 -0.0014511946 -0.0003774063 0.011382907 -0.008222037 -0.007537872 0.010554526 0.011614507 -0.014909702 0.0012334882 0.013166062 -0.0089062145 -0.0028245177 0.0014279389 0.014530588 -0.01480583 -0.0026661889 0.005466829 -0.011270448 -0.013309458 -0.008379595 0.006056504 -0.0032630009 -0.010076146 -0.009520622 0.014406172
laku -0.006394058 0.0018394006 0.007960003 0.004652298 0.005900743 0.0082178805 0.0068247197 -0.0094592925 0.01051426 -0.0037160069 -0.011886473 0.00028015036 0.009245662 -0.0114370445 0.0118282335 0.00010561434 0.01281956 -0.011199752 0.011987369 -0.0021637368 -0.0010909548 -0.0015393957 -0.0021621373 -0.014705916 -0.006636259 0.0027329703 0.007497524 -0.009843647 0.009717193 0.01180986 0.013869799 0.007261496
unggah 0.008873442 -0.013487304 -0.0016340446 -0.011290167 0.015526069 0.014099219 0.0042950166 -0.011840292 -0.009715347 0.0011017416 0.0052662245 -0.009388174 0.012367151 0.0011377392 -0.004880455 -0.005958126 0.0014027158 0.0052031334 0.012262724 -0.0015680871 -0.011944583 -0.005717048 0.011368317 -0.0045396616 0.015557726 0.006712637 -0.011675859 0.0028034819 -0.0012270501 -0.013864477 -0.014607726 0.006865532
indonesia 0.01565307 0.0073925965 -0.01250028 0.0134333065 -0.0033732317 -0.0018704771 0.00368887 0.005489885 0.007509749 -0.010290793 -0.010275317 -0.006254244 0.0033685572 0.008644537 -0.014123477 -0.009863952 -0.011805641 0.015098398 -0.0056383507 0.0067963195 0.008476547 0.008094132 0.015117625 0.009004679 -0.01385605 0.008683839 -0.013485589 -0.010212264 0.0092783915 0.014641926 0.0071957572 -0.0129433125
media 0.010530466 0.0006282062 -0.011044822 0.010058745 -0.0051383004 0.00432705 0.011272115 0.00014212541 0.01263547 0.013638635 0.011724068 -0.0029957092 -0.0010926668 0.014975971 0.0006786443 0.014106685 0.005720779 -0.004309774 0.015009211 -0.0031393594 0.009962175 -0.007750613 -0.0025379693 -0.0028622223 0.014379108 -0.013839553 -0.012248258 0.008231511 0.000623722 -0.0009824382 0.010499449 0.014835999
konten -0.0070183976 0.005128537 -0.0039212056 0.0020417648 -0.0074017346 -0.007958164 -0.011981975 -0.0016936172 0.01570102 0.015048163 0.0007120133 -0.011983836 0.005077966 0.005170235 -0.0027755683 -0.012115141 -0.008883985 -0.013834197 -0.004849398 0.0064283013 -0.0075041363 -0.008623668 -0.0108792465 -0.0010745623 -0.00518558 0.012104384 0.0045513846 0.015372614 0.0042529497 -0.011521525 0.0006592307 0.0062787845
lihat -0.00035354882 0.008200501 0.0028961936 0.00203365 0.010764369 0.015130957 -0.0036722159 0.009383966 -0.0026337889 0.008211022 0.008326401 -0.00059253 -0.015092102 0.010575205 0.015424212 0.013246687 -0.009993889 -0.0013487928 0.014338467 -0.010000411 0.015002647 -0.010068007 0.0074819825 0.008185211 0.013702183 0.010763101 0.015513834 0.009142807 -0.013431567 -0.0003903538 -0.0100805145 -0.001115715
nyata -0.0020672136 0.0037867753 0.003967783 -0.012103809 0.0113666 0.0026055868 0.0041801566 0.008676278 0.013833804 0.014574001 0.008249953 0.0022503387 -0.010720765 -0.012601726 -0.008960153 -0.012712 -0.0006011712 0.010727737 -0.01498381 3.5835903e-05 -0.009521783 0.008291677 0.013535792 -0.0047688996 0.0012389914 -0.003890461 0.01084263 0.013065058 0.015477391 0.009564502 -0.009745319 -0.010102202
arsip 0.0034376262 0.00044391913 0.003837291 -0.00019426108 -0.0082918955 0.0047946237 -0.0008233592 -0.012839732 0.015385956 0.0066861124 -0.014944905 -0.00544093 0.014896749 -0.0057097324 -0.01349849 0.010687733 0.007454837 -0.006093277 -0.005425926 0.007996901 0.0029362463 -0.013708507 0.0036514904 -0.00042838563 0.0008030939 -0.014140569 -0.01213474 0.0120859835 -0.0015657386 -0.01464271 0.009322076 0.0006053073
kali -0.014530631 0.010591662 -0.004463354 -0.010641651 -0.0054808925 -0.010356207 -0.000581492 0.014909871 -0.011179349 -0.01433019 -0.0069206185 -0.014215813 -0.010849082 -0.011734445 -0.0070683556 -0.014252853 -0.009034128 0.0064762183 0.007745445 0.005431046 -0.0017843591 -0.0006507189 -0.0033550453 -0.008621551 0.010218376 0.007771523 -0.013992008 0.015601595 0.005502454 -0.0009835737 0.0022365768 0.003254832
telusur 0.0054013547 -0.009380449 -0.012572382 0.014108649 0.0033924656 0.0071043177 -0.0065342127 0.0010735051 -0.012952118 0.013802085 0.015506891 -0.012112446 -0.0017752942 0.013139035 -0.008593219 -0.0033565147 -0.011471223 0.010542618 -0.0076302965 0.0101235835 0.0017455576 0.0008058903 0.004870907 -0.010299475 -0.011706851 -0.0031084977 -0.011048426 -0.01139023 0.015283961 -0.0154307475 0.0030710828 -0.011654152
fakta 0.00089293794 -0.008245279 -0.008924491 0.0147430375 -0.01175935 -0.014916865 -0.013374151 -0.011774969 -0.0036221852 0.0042268625 -0.0148174055 -0.00010030136 -0.0061292076 0.010597814 0.009259041 -0.007286489 0.013981613 0.00944104 0.008806139 0.00686142 3.2929296e-05 0.0027323253 0.005026223 -0.0017459884 0.0129183475 -0.004474223 0.009276514 0.0021677895 -0.0074494835 0.0030881048 -0.011721203 -0.00046125843
nama 0.00389681 -0.010236513 -0.014177268 0.003924046 0.0077452115 0.009437045 0.0019639747 0.0028923005 0.001100156 0.0009701813 -0.0152025195 -0.0035915799 0.004990819 0.006771103 -0.0015586065 -0.010735456 -0.013672108 -0.004195387 -0.0071557863 0.0153508205 -0.00939367 0.009270175 -0.01408853 0.011163344 0.013195939 -0.01537085 0.011837876 -0.011135573 -0.011819208 0.0152400015 -0.009500908 0.0014485876
tulis -0.011625338 -0.004030333 -0.011793114 -0.0108471 0.012479497 0.014174393 0.008473477 0.006998184 0.00010680126 -0.008268302 -0.0008570813 0.00799078 -0.012946063 0.00031481177 0.0047121006 0.003383635 0.010265177 -0.0030542293 0.0060118786 -0.008331525 -0.0028236024 0.0017064025 0.0054722195 0.0068569123 2.3979915e-06 -0.004792152 -0.014797377 -0.005608048 -0.0050874082 0.0051272255 0.011341219 0.0016492428
facebook -0.007646552 0.005651447 -0.004522902 -0.014447471 0.00032494913 -0.0045465603 0.006447033 0.007749396 -0.011656973 -0.007758857 -0.004746389 0.006675945 -0.0044168145 -0.013672731 0.011141913 -0.01127024 -0.0077067497 -0.01349865 -0.0042835227 -0.015210453 -0.0064965696 -0.0039195665 -0.0007369124 0.003829209 0.015044027 0.00024681148 0.0013846898 0.006591744 0.015522522 0.00014122704 0.014620101 -0.012351349
orang 0.009216202 0.0049917917 -0.007690894 0.0087700905 -0.007998249 0.014952618 0.012301693 0.0010778159 -0.0066020414 -0.0007371758 0.015220959 0.0070259282 0.0015050538 0.009702713 -0.013201034 0.008916134 0.0013166975 -0.0084192045 -0.011098077 0.004125867 -0.015497535 -0.0008176028 -0.0035217344 -0.01052421 -0.00014881475 -0.0036519053 0.013769523 -0.0015145596 0.01430389 -0.005960682 0.0013000637 0.0020484645
narasi -0.0123100905 0.0051520914 -0.009781806 -0.012529882 0.0016989398 0.00839696 -0.012273519 0.007752907 -0.0031947612 -0.012576168 3.3095246e-05 0.010521526 0.014999132 -0.0029469035 0.009936509 0.0053131646 -0.0025068743 -0.003632272 -0.00065812375 -0.007986958 0.011275999 0.002621556 0.0091958465 -0.001125033 0.004784298 -0.005161019 -0.0010585249 0.0037691582 0.011771725 0.0054537766 0.0035542736 -0.011029948
cari 0.015029995 -0.0009298456 0.012040952 0.0074759363 -0.009955694 0.005338206 -0.0065663415 0.008691754 -0.0063209455 -0.0069368947 -0.0050841924 0.0008854073 -0.01192746 -0.010366692 -0.007118559 -0.011855552 0.0020163837 0.001792363 0.0039046807 0.004602761 0.00991092 -0.0014865099 0.0042995242 0.0012623362 -0.013066234 -0.0062826946 -0.010391723 0.0036143397 -0.014109769 -0.015622507 -0.0094405 -0.00010480943
informasi 0.007878424 -0.011276531 -0.0115715135 0.0026502556 0.0010604277 -0.0014110609 -0.0043948437 -0.0008765608 -0.008773296 0.0098054875 -0.0047830404 0.0008740994 -0.012177813 -0.00023301707 -0.008844293 0.012576375 0.0053017577 0.0145619875 0.012306306 -0.0011146677 -0.005759084 0.011474114 0.00031232808 0.00021991995 0.0084603075 -0.005512066 0.009809391 -0.007588961 0.005827649 -0.011023347 5.0831935e-05 0.003994392
parkir -6.2808096e-05 0.011297468 -0.0069755744 0.0002086689 -0.007899599 0.009520107 -0.009138764 0.011880365 -0.0070168013 0.0015173459 -0.0029644046 0.003814669 0.005648052 -0.013119052 0.003025205 0.007163661 -0.010992428 -0.0018367723 0.009159957 -0.0035259295 -0.009227827 0.010079455 -0.0031197134 -0.010743578 0.0056482926 -0.011184276 -0.0037341511 -0.008424835 0.013752667 0.00550953 0.004427764 -0.012162363
gedung -0.014759257 0.0063389395 -0.01283155 0.007884889 0.011704807 -0.00692542 -0.014746829 0.010897325 -0.013161637 0.0067230263 0.005981665 -0.010529979 -0.007463411 -0.0028793844 0.010132928 -0.015613925 0.0023390485 -0.010249114 -0.0015679495 0.0076721744 0.012046091 0.0029297993 0.008895933 0.0052271783 -0.00023039682 0.0016011096 0.0053265803 0.008436549 -0.010965396 0.0024865675 0.009557648 0.0104563795
dpr 0.014535567 -0.0044794106 0.003140919 -0.010751263 0.005137836 0.011786718 0.009902565 -0.009350761 -0.0026801848 0.004977321 -0.004986205 -0.015075638 -0.014617244 0.009450481 0.008796751 -0.0071031773 0.008104191 0.013406761 -0.006648059 0.0034789979 0.004507016 -0.015261782 -0.0035452726 0.007083592 0.014910433 0.014130972 0.010659188 -0.00611745 -0.010587305 -0.0037265709 0.0042849896 0.009831964
agenda 0.013853212 -0.008828993 0.0073620756 0.0119119985 -0.011993461 -0.0022231298 0.010184083 -0.00054163975 0.0008010627 -0.0147533165 0.0077232714 -0.009853975 0.0043652775 -0.013135645 0.013557401 0.004254827 0.003963288 0.012510925 0.012339084 0.015075572 -0.008530252 -0.0023798826 0.006294599 -0.0077031613 0.0015553003 0.013484633 -0.008308959 -0.0051289275 -0.00012721398 -0.0021589124 -0.0012149401 -0.015267513
saudara -0.0066997595 0.0033346978 -0.008100466 0.00046850502 -0.0062679355 0.0023392944 0.0043438775 0.0029638298 0.013577382 0.010345786 0.005735605 0.0032411758 0.0120483665 0.0066931164 -0.006546382 0.0089677125 0.011069529 0.01179002 0.0059821783 -0.0036113702 -0.01259602 -0.015253933 0.00078128965 0.0046660807 -0.006628369 0.013663296 0.006975429 -0.0069180173 -0.0013113432 -0.013091964 -0.012949403 0.007674629
layar 0.0049815183 0.00030289704 0.015176635 0.0154878 -0.009903874 0.005718325 0.005742104 -0.0023919914 -0.0013017949 -4.6080564e-05 0.013865958 -0.012838812 0.0011483202 -0.007392467 -0.0016065976 0.002328435 0.01536288 -0.0074051227 -0.0145350965 0.0036136392 -0.0027265188 -0.0011645566 0.00338935 -0.00012202611 -0.010819018 0.01560865 -0.010863488 0.00010350026 0.008299115 -0.015107375 0.014799007 0.005297051
ambil -0.00021883144 -0.006238314 0.0142838145 0.010155375 -0.0069975406 0.008611215 -0.0014763284 0.0016151256 0.0023196018 0.011008034 -0.0034549637 -0.014157368 0.0064101745 0.004960704 0.0026018526 0.0053893435 -0.011955462 0.0032922288 -0.001738913 0.0023145552 -0.0056661093 0.003413796 -0.010421628 0.0017267705 0.0148721775 0.0046146438 0.012621121 -0.002968855 -0.0027740458 0.008876187 0.004261159 0.014288587
hasil 0.0035604227 0.00084619655 0.004298813 -0.0040243515 -0.013343374 -0.007787213 -0.012402297 -0.0018960504 -0.014987492 -0.0046758056 0.009115191 0.012714412 -0.01106754 0.011644222 0.009704615 -0.013190063 -0.0061082775 0.002378912 -0.0063401056 -0.013185144 -0.009016086 -0.013432791 0.004835485 -0.008654262 -0.0034083906 -0.006732932 0.008116529 -0.0011986842 0.01013578 0.010112359 0.008299712 -0.0015839577
forum -0.01075036 -0.0103925755 -0.0012967588 0.015405833 -0.011303244 -0.0004927796 0.015117014 -0.012126859 0.0026211215 0.0005265395 -0.005419267 -0.011474122 -0.005310918 -0.0063574836 -0.0024034688 0.005235202 -0.012127478 -0.00091148017 -0.0047435635 -0.003124104 0.0012662003 -0.007710167 -0.0065350616 -0.0057765525 0.008454037 0.0060465964 0.0059635327 0.008238771 0.0029669534 0.0044289497 -0.014129442 0.015261181
video -0.0017150476 -0.0022334985 0.011854779 0.005831252 -0.006449079 0.012654492 0.0070464723 -0.009187884 0.0014823208 -0.008091383 0.00081624667 -0.009954822 -0.0041917213 0.0062277354 0.00839976 0.0031374865 0.01122616 -0.006953144 -0.00757535 0.014011977 -0.009574965 0.0057120603 0.0049677365 0.015016956 0.008964023 -0.0151759265 -0.014946177 0.005276038 -0.0065458673 -0.0024977205 -0.008674262 0.003790756
klaim 0.01047083 -0.0015557323 0.003199813 0.003244915 0.0031797306 -0.007952379 0.0117448615 0.0015899857 0.013918852 -0.013890656 -0.0089307865 -0.0065414957 -0.012570316 0.0046992037 0.0030479792 -0.0039799246 0.0050707012 -0.014002351 0.0066992254 0.004690546 -0.013927978 -0.0019700585 0.0023599972 -0.005725722 0.0035819255 0.007233212 0.015256319 -0.013522248 0.013453829 0.012921861 0.00022213586 0.008228091
februari 0.0010917013 0.0097035 0.00038200215 -0.0064744833 0.0011423068 -0.011510414 -0.004607844 0.015031556 -0.0050513586 0.014768451 -0.011807446 -0.0049546673 -0.009460447 0.015590679 -0.00043347938 -0.014219481 0.009273301 -0.008440737 -0.008400564 0.011320957 0.0011458654 -0.0063410252 -0.011067193 -0.015419271 0.011100744 0.004819221 0.009333476 0.0034733198 0.003965613 0.00761033 0.0141612105 0.0073573305
judul -0.0048839636 -0.011794755 0.011962909 -0.0063021416 -0.004802093 0.006585639 -0.014136372 -0.008182234 -0.0025251901 0.009259878 0.015170421 -0.00027274064 0.00029224262 -0.0018842209 0.015294858 -0.010218357 0.012339078 0.009454388 0.0069432342 -0.0088152625 0.00025419265 -0.009111667 0.003662942 0.008465846 -0.0033644824 0.007250661 0.012586904 -0.004558519 -0.005889335 0.0075735305 0.00010693878 -0.01250062
makhluk -0.0023983459 0.014165664 0.00010316215 -0.008508011 0.00031448493 -0.008132203 -0.0029565445 -0.010049798 0.0103875585 -0.010935383 -0.014248898 0.0063749785 0.010021927 -0.0060066525 0.010608428 0.000515901 0.003537626 -0.008732794 0.006304656 -0.010138456 0.005575147 -0.008686787 0.010426687 -0.014348231 0.0069485684 0.009388101 -0.010317046 0.0067190486 0.01394583 0.00070447905 -0.011208078 0.011385803
terang 0.014908314 -0.0004328532 -0.0037207776 -0.0024008804 -0.012861542 -0.013926847 0.013016323 -0.010494682 0.006549396 0.013414149 -0.0031780875 -0.006230971 -0.0052633975 0.007881284 0.0002306011 0.0014954653 -0.0131359985 0.014635297 -0.008212441 0.0143869985 -0.013900527 0.0007088409 -0.0009600662 -0.008910556 0.007090731 -0.0037761037 0.014725433 0.00464856 -0.001348054 -0.015473618 -1.9832603e-06 0.008937242
the -0.0033008428 -0.0005579812 0.009907537 0.008875268 0.008917953 0.013826824 0.01388092 0.012458585 -0.0013727167 -0.010171212 -0.011893649 0.00935279 -0.005946803 -0.006454563 0.006347595 0.0022867818 0.0015762276 0.0032646132 0.0022899548 0.0024481493 0.012416985 0.013810348 -0.0008250553 -0.004470036 0.0052214256 -0.0047493298 0.009313125 0.0010600272 0.0059769405 0.011068447 0.003624262 -0.0052167852
acara 0.0134291565 -0.002136767 -0.0069712205 0.0076702647 0.0024683068 -0.0018761386 0.007889466 0.00028908928 -0.01511978 0.015634937 -0.01250327 0.0021009636 -0.012117139 -0.008310206 -0.010465562 0.015521241 -0.00061537157 -0.013763269 -0.0019724465 -0.012950274 -0.009095174 -0.006247811 -0.015443144 -0.0040860656 -0.013230719 -0.010557772 0.007432859 0.0040729656 0.005357722 0.000989039 -0.014709143 -0.0044330237
edelwies -0.012401178 -0.011825302 -0.00155432 0.013140837 -0.0055475384 0.010913862 -0.011569738 -0.011465582 0.0071093817 -0.0059740148 -0.008729486 -0.003668484 0.007766192 -0.004853555 0.013054089 0.009237695 -0.01229641 0.0017537427 0.0002830436 0.011752311 0.008545054 0.0025595888 -0.009593214 0.00081668876 0.015009477 -0.0012093289 -0.01315752 -0.011901915 0.0037037814 -0.009990968 -0.0005078508 -0.0015931436
cleo -0.009810877 0.0044693714 -0.010842841 -0.013283026 -0.0027725399 0.0057615726 0.012577145 -0.009401774 0.015387709 0.0057928814 0.0029550851 0.0078582885 0.012961657 0.015248302 0.0060005314 0.00848712 0.012518992 0.009093711 0.009972979 0.014238333 -0.013223101 -0.005406132 0.009472036 0.0021045129 -0.008730986 0.010855928 0.013994991 0.004436733 0.009836189 -0.0037442413 -0.014386104 -0.010824037
edelwiescleo -0.0049227513 -0.009277918 0.010284938 0.0011176111 -0.01310124 0.008685104 -0.014581922 -0.0013264564 -0.010766408 -0.0029570851 -0.015579869 -0.0074975304 0.012498947 -0.005157339 -0.001629744 0.0018924623 0.010719473 -0.01293218 -0.0039260346 -0.0068333326 -0.0076279533 0.0051426697 0.014645822 0.0012796174 -0.013902392 0.00571722 -0.008585178 -0.00873162 0.0075819045 -0.0020692577 0.0040230122 0.011676665
sabtu 0.0041186423 0.010850476 0.0109913815 0.005184541 -0.0039477763 0.0025464061 0.013782027 -0.0057250685 -0.012510002 0.015194288 -0.015179059 0.014039407 0.009958586 -0.008222489 0.00566246 -0.0143363215 0.009778582 -0.0024075047 0.0053444006 -0.013724174 -0.006711154 0.00072058826 -0.009892434 -0.014554541 0.0070531727 0.013600087 0.004817009 -0.0063015716 -0.0016726998 -0.0036722142 0.007434638 -0.013281768
bro 0.012107079 -0.0021706037 -0.012500998 -0.0044515263 0.0060529755 -0.007646935 -0.015612303 -0.01076426 -0.0060151154 0.00052802137 0.007208811 -0.013781807 0.0136307 -0.006914349 0.0008702411 -0.012216373 0.0030302072 0.0006192016 -0.00335526 0.00078394177 0.014807419 -0.01435263 0.002487018 0.00023758732 0.011046213 0.0019923 -0.0026142066 0.008739299 -0.00486663 -0.010209158 -0.0059009558 -0.0056144097
presiden 0.010115946 0.009838167 -0.0076570883 0.0036736082 -0.008685709 -0.009824172 -0.012422771 0.0073683695 -0.010902163 -0.015447481 0.015091545 0.009187779 -0.0012051145 -0.010018214 -0.005980492 0.0037475731 -0.013785407 0.0121808 0.008900964 0.0044835093 -0.0025592113 -0.009009724 0.010271534 -0.007182287 0.0064122593 -0.0052559227 0.00062396534 0.015554182 0.009174009 -0.004125937 -0.0009996251 -0.008691137
foto 0.004580867 -0.002371701 0.009515915 0.014668504 -0.0057339612 -0.009380142 -0.0063334187 0.0014284103 0.010146566 -0.011550864 -0.012736647 0.015006662 0.007480328 0.0031262517 0.0101618115 0.012905592 -0.0065531507 0.006136648 0.0058183405 -0.014612672 0.008213326 -0.0019319253 -0.0064187846 0.009072953 0.010819398 0.005965932 0.0050446275 -0.010339504 0.009257739 -0.014264625 0.013699764 0.013785098
asli -0.0003512404 -0.015002728 -0.014901372 -0.00018255359 -0.0014572913 0.010381108 0.0028183681 0.012197563 0.008215166 0.0022128841 0.014758343 -0.005644464 0.004552543 0.014323938 0.0010282268 -0.013583148 -0.009095798 0.012176628 -0.007475432 -0.015130398 0.0075819865 -0.0036283713 -0.0021420245 0.00090819795 -0.013057447 -0.01099946 -0.0051667057 0.011392247 0.0011557165 -0.0016929673 0.0003773798 0.0063238754
draft 0.015135699 -0.006700813 0.010801584 -0.0035069394 0.014613284 -0.010835094 -0.013616249 0.007819156 -0.0057309647 0.00041953215 -0.0065554045 0.006940835 0.010093613 0.012215053 0.0061881565 0.0024742258 0.0027626057 -0.011234255 0.0048373 -0.010462991 0.008028609 0.0028302777 -0.0116848955 0.0085952785 -0.009234156 0.0020578643 0.009566161 0.008046789 -0.0030980317 0.0058955043 0.010257742 -0.008880872
salah -0.009887172 0.0022917842 -0.0001317683 0.013225452 -0.004982517 0.0013184613 0.009275703 -0.015463314 0.013256075 0.002536919 -0.0028486361 -0.003344371 0.0036725742 0.004710699 0.005308306 0.00068597676 0.010234614 -0.004212422 0.010996992 -0.014010046 0.009003096 0.010899347 -0.009059486 -0.01520709 0.015187187 0.0051860306 0.0044899737 -0.002677865 0.010639185 -0.01227801 0.0022656836 -0.00180951
rumah -0.0043061515 0.0132242385 0.010759661 -0.00508429 0.015049862 0.015353446 -0.008344269 0.006344663 -0.001979538 0.011120872 0.0014476572 -0.0029861915 -0.013650723 0.011561172 0.009389268 -0.006883467 -0.003319496 -0.0013906036 -0.0026049572 0.015470039 0.0023924985 0.0045119473 -0.014459063 -0.010426798 0.011520987 0.0040441966 0.004983191 0.008247608 -0.011958282 0.00010031966 0.013439153 -0.0015537661
sakit 0.011591623 0.009481993 0.014083399 0.013688935 0.011362259 0.0018583633 -0.0072247386 0.007487614 -0.011386411 -0.003451472 -0.0069366833 -0.008408448 0.0064991345 0.007785376 0.013680732 0.00623978 -0.010655262 0.005068897 0.012330548 -0.005328502 0.0033336543 -0.011582354 -0.0022323297 -0.009946147 0.004810218 -0.0088744685 0.0012735629 0.0008235987 0.011472094 -0.011302353 -0.0137773 -0.007492702
selatan -0.014271849 -0.014395825 0.0044628005 -0.0008537448 -0.011962041 -0.012876349 0.0026216267 -0.00046664695 0.006008723 0.015360374 0.009967271 -0.008624136 0.009356943 0.0071213907 -0.007595054 -0.004596296 0.008668595 -0.0031887037 -0.002688138 -0.0018452153 0.010464707 -0.006923734 0.0025932798 -0.0002385381 -0.00071433606 0.0026685733 -0.0026519396 -0.010707624 -0.014541798 -0.004632278 -0.0031931777 0.0032347862
sesuai 0.008750543 0.008839622 -0.0046425276 -0.0029307136 0.0041682557 -0.0035618944 0.009070384 0.0017704605 0.0039197695 -0.0009938288 -0.0062945574 0.013700169 -0.009273723 0.0063744383 -0.0022582037 0.0033707402 0.01069049 0.0016176379 0.0012401596 -0.007829317 0.007714053 0.0061509246 -0.010698903 -0.008001359 0.0053448733 -0.007698153 0.0040468816 -0.01467943 0.013720646 -0.012404479 -0.0019394207 -0.006471359
kait -0.008970882 -0.009387746 0.0155860735 -0.0024332579 0.014002972 0.0011385455 -0.007473766 -0.003416686 -0.012831846 -0.002086196 -0.013513591 -0.009370412 0.0022423377 -0.0011704509 -0.0073050326 -0.011360517 0.005904277 -0.011474265 0.012720737 0.0119566275 0.005563706 -0.0011383937 0.005861775 0.0042794677 -0.013366069 -0.0013409263 0.0033033467 -0.0065437644 0.00042796612 0.0019819227 -0.01313747 0.0068999846
tinggal -0.011425314 -0.0031196012 0.012367885 -0.012553551 -0.0017672919 0.010790725 -0.0072027533 0.004174593 -0.0011680643 -0.011190892 -0.004353177 -0.00688349 0.014103975 0.0031004206 -0.002545204 -0.012653085 0.0009057025 0.0016119799 0.015258338 0.008153955 0.0060112504 0.008244539 -0.0010169337 -0.0026475936 -0.0040885485 -0.0065222136 -0.00015765436 0.011798497 0.01280568 -0.014331308 0.0014159692 -0.008142985
lengkap -0.011168731 0.010948393 -0.001520433 0.0037725628 0.0049828547 -0.000276819 0.01452538 -0.015507771 -0.00087836647 0.007833138 -0.013636615 0.01451744 0.010914637 -0.010681694 -0.007951847 0.006336408 0.008778258 0.007622197 0.015029248 -0.0049502947 0.011835931 -0.0077955886 0.014483129 0.0025968566 0.00023052387 0.0044297064 0.012596868 -0.015368701 0.0071472162 -0.008157325 -0.014416247 0.00033991286
aksi -0.0076598893 0.0084513035 0.004331455 0.0017924382 0.0029627038 -0.0043468475 -0.014106049 0.0076797884 -0.003046409 -0.0068829693 -0.0015491651 0.0065254006 0.015418725 -0.0141213555 -0.008968392 0.012438943 -0.012119492 0.012111763 0.008695471 -0.0023389265 0.0141444495 0.009316739 -0.015055292 -0.000106290245 0.0110679045 -0.014475701 -0.012657049 0.0013022819 -0.011740271 0.01417968 -0.011003602 0.008443349
wamena -0.01020819 0.0030551315 -0.0116676 0.014614636 -0.0037065858 0.011476839 -0.014855678 -0.012210145 -0.009880994 0.010705311 -0.0017389436 0.00026925188 -0.013000157 0.011575775 -0.0018370491 0.009359483 -0.000677741 0.009477117 -0.013420137 0.0063595003 -0.01091085 0.011660118 0.012489253 -0.0068236627 0.011285242 0.0052135764 -0.009283208 0.012841329 0.0075343037 -0.0027973289 0.005326817 -0.010527048
hadap -0.0005421159 0.015306259 0.004950103 0.009590252 -0.01432369 -0.0035411988 -0.004448299 -0.011903614 0.0062969956 -0.0018967767 -0.013922197 -0.012009631 -0.013796722 0.00609156 -0.013867154 -0.0127078965 0.006998296 -0.01229906 -0.013368467 0.0130096935 0.01428095 0.00890291 0.0013955495 0.0036793768 0.0020615365 -0.0004055876 -0.0155950785 -0.0050183125 -0.014097122 0.015136376 -0.002497249 0.0005921603
berita -0.0015806155 -0.014583761 0.0135688195 0.0150149455 0.0061077336 0.015338382 -0.011196082 0.007321617 -0.007173215 0.0061419713 0.0045848857 0.009749102 -0.0014336896 -4.4686472e-05 0.0077711833 0.015461484 -0.007769925 0.004186171 -0.009675367 0.013312907 -0.007849055 0.007302653 -0.0066759754 -0.0035407213 -0.012731044 0.014558592 0.0043224 -0.0051893634 0.0036994335 -0.0070927497 -0.0069304784 -0.004804154
muat -0.0024889037 -0.0134923 -0.010384106 0.009380879 -0.000699285 -0.008471774 -0.008185638 -0.015458779 0.0067182607 0.009779966 0.0033752518 0.00029719586 0.004448404 0.009888473 0.014484928 0.009849735 -0.0016685808 0.0023129652 0.006950988 0.0054805893 0.014354696 0.009834144 0.0042472035 0.010880785 -0.0076413034 -0.0028004246 0.007566253 0.0037391265 -0.012054302 -0.005963252 -0.006304043 0.008037494
edar -0.005173916 0.009928075 -0.00985678 -0.0094272215 -0.009093261 0.00921151 0.011502785 -0.014949624 0.009591648 -0.006060789 -6.221476e-06 0.0061656586 0.00014996041 0.012471813 -0.0007500839 0.0065213125 -0.0059611 -0.007687837 0.013546632 0.005685548 0.013922601 0.0036539414 0.0133485375 -0.0024454219 -0.0073865005 0.004624967 0.0033498993 -0.0034899702 0.009876452 0.013624118 0.007844447 -0.004599064
sosial -0.011412414 -0.004746724 -0.007293758 0.009565254 -0.013467403 -0.0089054825 0.012961702 0.005924134 -0.003383607 -0.00070143095 -0.005610573 -0.003631878 -0.00487555 -0.0044092867 -0.00053326687 0.010923949 0.012257389 -0.00079349725 0.013643264 0.006871664 0.008390706 0.005081805 -0.013328063 -0.0041137226 0.0067334515 0.013633527 -0.007558303 0.0015713676 0.0035535062 0.008028839 -0.015405295 0.0031199649
buka -0.0013593748 0.011295149 0.013952326 -0.008270594 0.007750413 -0.011495717 -0.00043380418 0.011515017 -0.010506817 -0.008597978 0.0038634653 -0.009786244 0.0058518415 0.002375005 0.015398241 0.0063962117 -0.00070843025 -0.0029391637 -0.009516834 -0.006293755 0.007909539 0.0013359812 0.012867255 0.0003480939 -0.009433757 -0.0028060337 0.0037631292 -0.008276142 -0.011283819 7.997758e-05 0.0030649137 -0.0030741761
showroom -0.0060421317 -0.0074685556 -0.010350449 0.0036190313 0.009978148 -0.0013304714 -0.009368345 -0.0014298796 -0.007836809 -0.009822881 -0.011133735 -0.0032639035 -0.011404823 0.0027279074 0.0034911463 0.013566874 -0.011539522 0.01437272 0.0080585545 -0.0022813866 0.0008442444 0.01090384 0.0018600742 -0.0147966035 -0.015343083 0.00996741 0.006487939 -0.011706981 -0.008183651 -0.0071406877 0.009210494 0.0055948733
mobil -0.003974825 -0.0019173677 -0.012315475 -0.013902742 -0.007205511 -0.0059059784 0.0046840776 0.0014984012 -0.007002463 -0.014221322 0.0029776827 0.000947367 0.007782181 0.008203377 0.005770524 0.0006623192 -0.007997881 0.00085056335 0.008697878 0.0077235205 0.0040202118 -0.0013233888 -0.0071165473 0.005310645 0.0015078026 -0.004666405 0.00826895 -0.010893273 0.012848415 0.006790319 0.0059590703 0.0034228475
esemka -0.008630783 0.0008810181 -0.006163112 -0.0097382385 -0.008210729 -0.005598454 0.009966213 0.012460334 0.011762504 0.0064053424 0.01346932 0.013715762 0.0140271345 0.010935535 -0.0025155998 -0.010893602 -0.011620151 -0.012552588 -0.013412108 -0.006887207 0.008227385 -0.013635902 0.013082961 0.009603237 -0.006531166 0.0042015966 -0.007928982 -0.0018747551 -0.010329538 0.010717729 -0.014530738 -0.0032272397
pabrik 0.014160054 0.002461508 -0.0054120533 -0.0072698756 -0.0060020047 -0.010021383 0.010040363 0.0029280477 -0.002365592 -0.0022628075 -0.01115485 0.011393428 0.0027524228 -0.0009400278 0.009992835 -0.009467419 -0.011348973 0.006996961 0.0021903797 0.0056643127 -0.00600704 -0.0034239779 -0.012780255 -0.008114246 -0.011333672 -0.004221451 -0.006574147 0.00080277125 0.009334563 0.0060107363 -0.004048364 -0.0055979346
boyolali 0.0068839635 -0.01546767 0.0061608194 0.0149381 0.010034244 -0.009383929 0.0078366455 0.0047750836 -0.005384865 0.015067562 -0.014373437 0.015386511 -0.014708384 -0.006399945 -0.013279036 0.011495004 0.014148839 0.0009729604 -0.0023586426 -0.004371318 0.0072419974 -0.009563986 0.012619279 -0.01520864 -0.0058992333 0.01068212 0.00233859 -0.008238052 0.0152245285 0.0012202282 0.009657519 0.0043337345
senin -0.007968719 -0.005215697 0.0056838896 0.014031139 -0.0024614271 -0.012017962 -0.0019114667 0.010234627 0.0041998243 0.0022938512 0.0044642384 0.0025618747 0.013197946 -0.014302399 0.014787874 0.014833402 -0.0071123433 0.007141979 0.00489037 0.014328396 -0.0045780344 0.002562695 -0.004738712 -0.013713793 -0.009258708 0.013176613 0.010742195 -0.0044630812 -0.0042582294 0.014568712 0.0012163143 -0.0057321424
oktober -0.009919186 -0.0076189777 -0.00951785 -0.002290085 -0.011876762 -0.0047027697 0.0011609623 -0.013457385 -0.0022071546 0.011499044 -0.00484439 -0.012269947 -0.013685255 -0.009793331 -0.0026490483 0.0073128697 0.011192996 0.011116197 0.0031393503 0.009474378 -0.010918849 0.011752999 0.0068096076 0.0047894185 0.0039041508 0.010125779 0.0068159183 -0.0089508975 -0.0031189974 0.0033182218 0.014164971 -0.0006307056
resmi -0.0034890082 -0.0048821517 0.01193487 0.010902997 0.0125456285 -0.0155718 -0.007262725 -0.015526441 -0.011904729 -0.004332577 0.010522152 -0.0001418928 -0.0020576934 0.0072339415 -0.009801861 0.003370872 -0.011020677 -0.015376681 -0.013874371 0.009659284 -0.0100344345 0.012672104 0.005123996 0.0024752093 -0.011012899 -0.008641244 -0.0074206074 -0.006441581 -0.0014203102 -0.01443935 -0.00392705 -0.004169536
audzu -0.0033564898 0.014044679 -0.013924465 0.0067038946 -0.011721054 0.007912631 -0.006638996 0.0062428503 -0.011270782 0.014866838 0.00089156046 0.014652448 -0.009482374 0.015420131 0.007473383 0.014232865 0.0006981476 -0.01103127 -0.015415906 0.012547345 -0.004397614 0.007624666 0.0010778451 -0.009148437 -0.010426219 0.004474868 0.015305736 0.010391836 0.0146286925 0.014428672 -0.00432831 0.0025290519
billahi 0.0010156808 -0.011248064 0.0019974818 0.009469504 -0.015268039 -0.015628677 0.0078001544 -0.0015496657 0.0077543235 0.01446504 -0.0040382408 -0.005157589 0.0033146827 0.009505238 -0.0120644905 0.013647167 -0.015239535 0.0076625254 -0.0013722415 0.008654243 0.0010543339 0.0037328296 -0.0009419441 0.0043668756 -0.010378585 0.005931092 -0.0034245637 -0.012343356 0.008192989 -0.0011604009 0.009234557 -0.007182581
mas 0.0073091076 -0.009584014 0.0021362961 -0.013655875 -0.012024165 -0.009947709 0.008897816 0.0007717784 0.011605558 0.0032448764 -0.0081357565 0.011477943 0.008256657 -0.00074835715 -0.00036584164 0.009994435 -0.015199478 -0.0024927345 -0.015224389 0.015567367 -0.00064066815 0.002461532 -0.0028340183 0.013094456 -0.009246301 -0.0017350652 0.013109674 0.0082876235 -0.003108028 0.009371648 0.0015402607 -0.0041206446
syaithonir 0.008113721 -0.005089965 0.00019066704 0.0007354293 0.007633495 -0.011966744 0.0060010892 0.014728231 0.012373853 0.0031667158 -0.00851002 -0.013333433 0.013960905 -0.0014101779 -0.009967729 -0.0016452669 0.010269522 0.008331647 0.010810207 -3.4336852e-05 -0.013495324 -0.0016264451 -0.011036876 0.0070899366 0.0029840171 -0.014901693 0.014073876 0.014694844 0.014687833 0.008972138 0.0028693527 -0.00816567
rojiim -0.0042723306 0.008644014 -0.005708988 0.013884685 0.006044822 -0.0063933367 -0.009760391 0.005345883 0.0019719168 0.01465451 0.009739127 -0.0048673754 0.01444498 -0.007240353 -0.0081979865 -0.006692156 0.013107677 -0.01007316 -0.014935566 -0.006915627 -0.012797644 -4.404795e-05 0.0045521795 0.0036716734 0.014828647 0.011904204 0.0062400647 -0.0032816888 0.014838217 -0.015516089 -0.0012439357 -0.0010170958
jin 0.004586969 -0.015427897 0.0032836085 0.009733874 -0.0037861161 -0.00035968513 0.010342306 0.015061692 0.013038972 -0.014829815 -0.010551312 0.0048346384 0.0037516847 -0.011882583 -0.008915809 -0.008754365 0.0021453483 -0.01552559 -0.0059930496 0.005504302 -0.014429184 -0.0010741896 -0.009645332 0.011515494 0.00030555093 0.0073781027 -0.010810518 0.0031519313 0.0145387985 -0.0055359285 0.005040424 -0.009630304
hadir 0.004129146 -0.0021052184 -0.00992567 -0.0027669694 -0.0046481597 -0.010575106 0.005418562 0.0155085195 -0.007636886 -0.0026591003 0.006275458 -0.01272103 -0.009379626 -0.010623388 0.010145072 -0.0013019027 0.007055465 -0.0035985163 0.01135285 0.005906396 -0.006487432 -0.0014017915 -0.008124585 0.00650968 -0.0040933928 -0.007899059 -0.014182292 0.013769829 -0.0025001077 3.2713127e-05 -0.009806213 0.0044705626
lantik -0.0008962481 0.011151257 -0.009124424 -0.0052719405 0.014919033 -0.0049047074 0.015334868 0.0006022083 0.0052584917 0.0039686183 0.00019780766 0.011721948 0.011061136 -0.013354572 -0.0150467185 0.010837396 -0.0066619245 0.012978156 -0.0024517344 -0.002607568 -0.0010653958 0.0032248695 0.0064802873 0.008824693 -0.0014213588 0.0028861745 -0.0135046905 -0.0055973884 -0.0051111258 -0.0038306057 -0.007465937 -0.0057777828
jokowima -0.007394708 -0.0048642713 -0.013112485 0.005835538 -0.008176623 -0.012293278 -0.01096292 -0.014721821 0.002552048 -0.014643843 -0.0065745017 0.0021151535 -0.002794026 0.0077029387 0.008269183 -0.0027919717 -0.00525346 0.007494164 0.010415146 -0.0047120494 -0.0004147165 0.0011196857 -0.012965865 -0.010182222 -0.0027803471 -0.0073919618 -0.012182964 -0.00640376 -0.012663808 -0.0101717 0.011347785 -0.0015798728
ruf 0.012126052 -0.014115609 0.009183802 0.008257823 0.00999798 -0.011845275 -0.0031510473 0.00810038 -0.004597188 0.007959586 -0.01151744 -0.005368016 0.0009906992 0.009190511 -0.012549933 -0.010605937 -0.0082477685 -0.011971829 -0.012108871 -0.008632313 0.0020302613 0.00313547 -0.0015261364 0.004577539 0.010796186 -0.012847886 -0.0036020302 -0.01004567 -0.0011267551 0.007151713 -0.0020554995 -0.008435604
syukur 0.0056761582 0.005569893 -0.015436928 0.006971671 0.005536116 0.014200449 0.007802534 -0.008339336 0.008140235 0.015259319 -0.0066265673 -0.012763099 -0.008712341 0.008937071 0.0019627286 0.011360204 -0.010422455 0.002563067 0.008337937 -0.00074482796 0.004167261 -0.00399593 -0.0104623195 -3.1264055e-05 0.009640773 0.0052936017 -0.0012877116 -0.0010937114 -0.012037716 0.0125793815 -0.0043002316 -0.009019449
bangsa -0.0002693814 -0.014945918 -0.0063260137 0.012532997 -0.015250701 0.013312214 -0.011125168 -0.01004698 -0.0048061735 0.00051359483 0.005037861 0.010500047 0.013092765 -0.004651392 0.007380025 -0.005925341 0.0052468493 0.009566653 0.0075576873 0.00032877826 0.0040250495 -0.006141746 0.0035936253 -0.010296265 0.006026611 -0.0126774395 0.002174259 0.012295204 -0.014104064 -0.0072956216 0.011192503 0.009757021
allah 0.00026326973 -0.0033823904 0.006648634 0.013316183 0.0071946974 -0.0134667 0.0011629802 0.003730011 -0.003278455 0.010645527 -0.012587848 0.0022647523 -0.009629174 0.0009218772 0.0031173455 0.008909132 0.0022325232 -0.0066994126 0.0023017363 0.0032049897 -0.009912387 0.010520831 0.00081780885 -0.0033366838 0.010379252 0.0017654625 -0.012347475 -0.010152603 0.0028909927 0.011613833 -0.00483583 0.0024480582
krn -0.008198135 0.01509987 0.012758571 0.0014867333 -0.00042918423 -0.008530473 0.01283 0.009753986 -0.008690352 -0.006156767 -0.014553319 0.008165804 0.013356338 -0.014394737 -0.010193003 -0.0023619926 -0.0061768126 -0.009317903 -0.006924666 0.0021745015 0.0005547191 -0.014567269 0.0075611603 0.0075588506 0.0012950844 0.0018862033 -0.0058631003 0.004474909 0.014227526 -0.0021214827 0.011207786 0.0043296893
hikmah 0.009963323 -0.014611098 -0.006316356 0.00796841 0.009144364 0.014030422 -0.009040191 0.0014564225 0.0144378 -0.01170914 0.0007948566 0.010161221 0.006152203 -0.01085176 -0.011559472 0.004504979 0.0023474973 -0.007057712 0.0043164254 0.0155252265 -0.005250651 0.008579943 -0.0069512175 0.008483377 -0.006305974 0.0051567624 0.012757852 -0.007676055 -0.005985485 -0.007915425 -0.013913421 -0.002614017
sembunyi 0.008583582 0.0097660795 -0.010845568 -0.00016266953 -0.00944191 0.008189318 -0.00021105223 -0.01198965 0.0038502424 -0.001701475 -0.0137748 0.0033312861 0.0003225783 0.015291211 0.011769875 -0.013613197 0.012383583 -0.00984847 0.010184944 0.0035709376 -0.003567059 0.011023673 -0.012775414 -0.005902703 -0.0010806886 0.004128948 -0.011276676 -0.0027042117 0.010818683 0.013528603 0.014235763 0.003799673
pandang 0.014563063 -0.015088621 -0.0026666045 0.0013012482 0.01531703 0.012393603 -0.00810088 0.011279505 0.0020079731 -0.010838283 0.004069598 -0.004839529 -0.0140960105 -0.0027175818 0.008177939 -0.0012132926 -0.0104179755 -0.010256713 0.0026970548 -0.008899803 -0.0063128867 0.008270367 -0.0074037155 0.010861561 0.006401194 -0.0064856377 0.004272827 0.011700181 0.014480612 0.000100210746 0.007968962 0.014095361
mata -0.012983423 -0.0061079906 -0.004193836 0.014803961 0.014201834 -0.004808639 0.0002927113 -0.013961243 0.0014749481 -0.01473713 0.008226724 0.005048302 -0.00811745 0.0072167064 0.014546604 -0.010331823 0.004835816 0.0049228673 0.0027044034 0.009633403 0.011901073 0.0017543661 0.001567885 0.0064537358 -0.013289515 -0.0011951877 0.0040151794 0.011251438 -0.01304177 -0.009916625 0.0004947018 -0.0036783114
manusia -0.011683505 -0.000514251 -0.011109207 -0.01366603 -0.009274491 -0.01351078 -0.009175869 -0.013594296 0.0149054425 0.0026887492 -0.015504337 -0.007285959 -0.0036544765 0.0015554639 0.011467479 0.0035788254 0.01312554 -0.008760682 0.013442094 -0.009889548 0.0010472076 -0.0047160913 -0.00024196674 -0.0008864407 -0.0010723869 0.012969619 -0.0088877315 -0.012379559 -0.013561825 -0.0032955767 -0.0044819284 -0.0028871936
betapa 0.008917763 0.014204905 0.013987216 0.011136111 -0.007839192 0.00096975506 -0.00090524094 0.0055459565 -0.0022207778 -0.0065273605 0.015428795 -0.008897518 -0.010269871 0.013278531 -0.00880903 -0.014724404 -0.005892184 -0.009729606 -0.0103698 -0.0054532294 -0.000969671 -0.009423277 0.008347406 0.010678392 0.0137886 -0.008941114 -0.0037336366 -0.004131267 0.015065581 -0.002807622 -0.0033647555 -0.013442961
ganas 0.0021331091 0.0070252204 0.013323811 -0.0071246955 -0.0052254335 -0.0016111576 -0.0064903162 -0.012384895 -0.010827128 -0.008580481 -0.0037090592 0.0040461584 0.004988952 0.005765328 -0.007883825 0.0066680764 0.00067532365 0.005390558 0.0140511645 -0.0059908354 -0.0032757572 0.0033401907 0.0012824612 -0.0027418365 -0.000482607 -0.010392939 -0.010880773 0.001523031 0.014900057 0.011201005 0.0003755508 0.005785198
bani -0.0011707078 -0.012198369 -0.01002947 0.0063363127 0.009596355 -0.011591721 0.0056416206 -0.008869502 -0.01365641 0.015533279 -0.014207906 -0.01460733 0.012776184 0.01391518 -0.014863239 -0.0061560655 0.0043441723 0.015341715 0.0008206339 0.010855893 0.006748707 0.014126374 -0.012901154 -0.002418744 0.0038598513 0.0016571304 -0.006997104 -0.004641879 0.002741074 -0.002336638 0.0021971213 0.0007578199
adam -0.006989923 -0.0024414111 0.0038314245 -0.013726439 -0.015344964 0.0021867899 -0.0006751764 -0.011898275 -0.006751466 0.0004729119 -0.008517115 0.012489238 0.005763263 -0.00916796 -0.008303686 -0.01394152 0.002307247 0.00778715 0.010597372 0.0063044834 0.013378198 -0.0057271835 -0.010368349 0.011006952 -0.012316038 0.015017876 0.013033573 0.00930386 -0.0102478145 0.008668285 0.0044151363 0.006526144
wallahu 0.0095120715 0.012354441 -0.009433578 -0.008479583 0.014214051 0.009672304 0.0007056128 -0.0076822247 0.011481343 0.0038571565 -0.002343084 0.0073853508 -0.002621339 -0.0011940593 0.011694106 0.005088551 0.00993453 -0.0014172307 0.015191825 0.0048056245 -0.0003484094 -0.010012838 -0.0077021103 -0.010715398 0.013058855 -0.015561006 -0.0009922184 -0.007926644 0.015222919 0.0027746593 -0.0014765101 0.014066965
alam 0.006236986 0.0040472844 -0.003819632 -0.00957915 -0.009820793 -0.012555886 -0.00058420544 -0.009920773 0.005424116 0.0054210024 0.011580809 -0.0066473503 0.004368862 0.0063184476 -0.010130021 0.00080898014 -0.009728588 -0.007984304 0.0048405603 -0.0042116255 0.014630241 -0.0031639847 0.013948983 0.010695532 0.0071029724 0.0125514055 0.0066759936 -0.007816997 -0.0001167499 0.013254114 -0.0090453 -0.008507894
tangkap 0.008782868 -0.013392019 -0.00906247 -0.011322361 -0.0029813577 -0.010122498 -0.015044683 0.008066882 -0.015280671 -0.007136112 -0.015373425 0.010577962 -0.003530791 0.013114405 0.008773132 -0.010225553 -0.012183004 -0.013730933 0.0069810967 0.009519099 -0.00049594376 0.0009559182 -0.0038917828 -0.014847714 -0.007593041 -0.004895537 0.0149254585 0.010466087 -0.011477709 -0.012726534 0.0099231135 0.012668638
dasar -0.0016570435 -0.010599549 0.015416885 0.00091538153 0.007326277 0.012303738 -0.002007671 0.0124487635 0.012036654 -0.009928281 0.0012809471 0.006975944 -0.0039288905 0.013918072 0.008525483 -0.009376506 -0.00532207 -0.011579819 0.003833347 0.0008736159 -0.01492829 0.014248445 -0.011176932 -0.0048374366 -0.013827258 -0.003244988 -0.015404323 -0.010644443 -0.0096791005 -0.011212561 -0.015094805 0.00014848473
anggota -0.0062402165 -0.0046016364 -0.0085363155 -0.014457839 0.015314638 0.006942469 -0.014279654 0.0076878318 -0.009238865 6.551473e-05 -0.004060171 -0.007302581 -0.008299144 -0.0033314505 0.010330053 -0.01254068 0.009933776 -0.0011350345 -0.0135792205 -0.013038651 0.006068717 -0.011690375 0.007861085 0.0015277097 -0.013028914 -0.000183432 -0.009930003 -0.008751062 0.00611163 0.0022975495 0.003669737 -0.008531878
grup 0.0054395255 -0.0080024265 -0.009194316 0.009905051 -0.009516381 -0.015362008 -0.014411102 0.011859619 -0.00032369694 0.0075970422 -0.0086226035 -0.0020525241 0.0010323864 -0.0012017175 0.014136486 0.01532508 -0.014521397 0.00047682677 0.0033412643 0.014887927 0.015641369 -0.011672382 0.0069127427 0.0119667575 0.0027065452 0.011692715 -0.0067734234 -0.006985794 0.013359526 -0.010920808 -0.010360878 -0.0071257604
anti -0.012663504 0.012901104 0.0032131865 0.0018814997 0.012735404 0.0072379005 -0.004467543 -0.007662366 0.0029504907 -0.0054072477 -0.0059433933 -0.006884365 0.010741211 0.0027569528 -0.0020241742 -0.0079401145 -0.0042175385 0.008758192 -0.007917733 -0.00857514 0.0051002447 -0.00442799 0.0028558995 0.00013678186 -0.008257015 0.004705678 0.005422335 -0.013185016 -0.013768091 -0.007627587 0.011969634 -0.014016025
fitnah 0.004713959 0.0008680769 0.01291786 -0.011582521 0.006427716 -0.0009228958 0.011524132 0.004393823 -0.009640854 -0.0064480817 0.0071569546 0.0061585982 -0.0067509427 0.0017640971 -0.01507894 -0.0019441501 -0.006449031 -0.0061541125 0.007792863 -0.004413992 0.0033618547 0.01081353 -0.00032680566 -0.0113617815 -0.009451908 0.0024085012 0.014549247 0.0024486717 0.009663032 0.0029297944 0.012219375 -0.0022627322
hasut 0.0058890604 -0.0070744758 -0.00310134 -0.006900865 0.011278791 0.010851724 -0.014059832 0.014462106 0.015216825 0.0039727045 0.008006436 0.00012214888 0.011198123 0.0032373301 -0.013036378 0.0010353057 0.015559321 -0.0021984011 0.0030759661 0.003319848 -0.006200828 0.0068091033 0.01311409 0.00554148 -0.011102167 0.00628149 0.0053095375 -0.0015172091 -0.0033471482 -0.001406946 0.0035400165 0.005281484
hoax 0.006378993 0.0013663446 0.011781375 -0.015467496 -0.013593517 0.0052657654 0.0033131666 -0.012248412 0.010096788 0.013221747 0.0068441518 -0.012253577 0.012027341 -0.008872447 -0.00055323885 -0.0011317093 -0.008195383 0.0038376353 -0.010530106 0.0058395364 0.010446875 -0.0029912593 -0.015130574 -0.0014798215 0.011723778 0.0008003546 0.012259606 0.013369295 0.013027748 0.0087464955 -0.00775138 0.001355246
benarbenar 0.013506558 -0.00082271895 0.012535208 0.0010888353 -7.569394e-06 0.0007630692 0.0071899067 0.012494531 -0.004292781 0.013748695 -0.0071302815 -0.01066896 -0.009657113 -0.0005483981 0.009283743 -0.006627618 -0.0052591697 0.010935633 0.0066518206 -0.0027813686 -0.0015143991 0.0008620733 0.009340684 -0.010317215 -0.010471861 0.010384789 -0.014524411 5.7416357e-05 -0.005517059 0.014210386 0.013914073 -0.0008533662
youtuber 0.003993034 0.009366345 0.0021663094 0.014572874 -0.011094075 -0.014324857 0.0050922134 -0.00096357026 -0.009668263 -0.009243567 -0.012681634 0.005017521 0.010261439 -0.009146057 -0.015299231 0.013425377 0.0036699455 0.0037346908 -0.006240785 -0.011070929 0.0143173225 -0.0003805596 -0.008198686 -0.013447575 -0.012648914 -0.0028086307 0.011168076 0.015636958 0.0017277354 -0.0014529888 0.013045555 -0.0109286755
republik 0.0034218144 0.01099801 -0.007832191 -0.00540075 -0.0039408687 0.007780206 -0.012295408 0.008863415 0.009355442 -0.011784207 0.009925714 0.0045701703 0.0104333 -0.013245281 -0.014262442 -0.0075937198 0.005848717 0.0054602474 -0.0038397717 -0.0047686533 0.006792828 -0.006203462 0.0016966583 0.008610628 -0.0015760534 -0.0018132516 -0.0018110311 -0.00631698 -0.0064144665 0.005160604 -0.010832572 -0.003413568
nikaragua -0.009677551 0.013076815 -0.0017732568 -0.0010076455 -0.0014163797 -0.0151438955 -0.0055349325 -0.00672715 -0.001841328 -0.00070638047 -0.013778608 -0.006395587 -0.0027321724 -0.0071265795 -0.011339601 -0.0076694293 -0.009276331 -0.006962161 -0.004830331 -0.0003008859 0.001319936 -0.0048041306 -0.009023104 0.011610789 -0.00083460374 -0.006198191 0.007672269 0.009993596 0.010738215 -0.007148164 -0.0012792218 -0.008754846
jjpd 7.021332e-05 -0.014995511 -0.01490524 -0.005153393 0.0016645544 0.012208963 -0.008089214 0.010914861 0.007603029 0.0128338365 0.0119014345 0.006181482 0.00011897876 0.011258444 0.014985449 -0.01526158 -0.00989229 -0.0012485931 0.0061883 0.0042701247 0.0049671098 -0.014693547 -0.011925878 0.0017613438 0.01041996 0.004793863 -0.0028115937 0.0042124516 -0.011514876 -0.0057063173 0.0025645895 -0.010345232
producciones 0.010475995 0.012745484 0.002400584 0.0047297347 0.0038070816 -0.015073593 0.012560889 -0.0005655265 0.0077599525 0.01265019 0.012078718 -0.0026177557 0.0036059471 -0.008222786 -0.009985232 -0.011090856 5.4101958e-05 0.004006353 -0.009898912 0.006188885 0.011046103 0.005313935 0.005963195 -0.007572387 0.010343564 0.0033077793 0.010380626 -0.00679529 -0.0009352472 0.015171779 0.009458686 0.007835439
chanel -0.003921716 0.014065101 0.0049438234 0.012416556 0.0062428773 0.0037025947 0.0020128402 -0.0027895097 0.00088763156 -0.015107619 -0.0036413327 0.005808784 -0.0028574527 0.0036483211 -0.012683131 -0.0011125992 0.012389409 -0.014361925 -0.005164439 -0.00042798195 0.004020491 0.014453979 0.011188878 0.008258494 -0.009773343 0.01479658 -0.009610056 -0.014362853 0.0040648985 0.0079577975 0.01487711 0.014882424
verifikasi -0.0046522 -0.013120771 0.0045094006 0.006447693 0.014910164 -0.014842629 0.011048354 -0.005628881 0.009839004 0.014528498 0.009712561 0.0034966369 0.010665151 0.014516262 0.014391643 -0.013315117 -0.011060856 0.0055927085 0.010476808 0.006692546 -0.002071489 -0.013746735 -0.00659433 -0.0039594783 -0.013667898 0.004749337 0.004131867 0.0048393984 -0.010048044 0.005481103 -0.0095222965 -0.009180736
milik 0.015085998 0.0114851305 0.013109412 0.0049900236 0.0047030286 -6.983283e-05 -0.011895721 -0.011668203 -0.015015894 -0.009899629 -0.0098247 -0.005796528 -0.0026927283 -0.009855071 0.012795565 -0.009000193 0.011981768 -0.004017654 0.009196433 -0.012532872 4.0493298e-05 -0.004830595 -0.0067783976 0.009790187 0.015209666 0.005525327 0.0005518419 -0.0072495234 0.010537697 0.0059159603 0.0044389185 -0.00923016
jjoaquin 0.00033829614 0.003921229 -0.013934518 -0.013463072 0.0014465483 -0.0025524239 0.009504043 0.014941034 -0.00062265265 -0.011762095 -0.009137209 -0.0053456333 0.0071217795 -0.004740939 -0.007606602 0.012219977 -0.006390509 0.010665151 0.00639762 -0.0071112327 -0.0017368072 -0.007207379 0.00877424 -0.0070858086 0.008039471 -0.00767796 0.0014463657 -0.004548648 -0.0044225426 0.0067734323 0.011657552 0.003383959
perez 0.011111993 -0.0085281 -0.008942683 0.008729099 0.013605453 -0.0025815188 0.0069543268 0.011353604 0.0032590353 0.0037290186 0.005556362 -0.011843505 0.012892769 0.003969716 -0.009702443 0.009504357 0.0015267987 0.011587896 0.014239076 -0.013749831 -0.0068534343 -0.013581974 -0.00088927674 0.006508785 -0.0059429584 -0.011454043 0.010193792 0.0037685034 -0.012225874 -0.010971784 0.013859861 0.0064831497
jimmy -0.003701827 -0.011700369 0.01347438 -0.00024086623 -0.0026018692 -0.0071271365 0.007266267 -0.0038195443 0.00320312 -0.0045503136 0.007438959 0.009407341 0.006470663 0.0122280605 0.0055792783 -0.006352167 -0.0032256527 -0.013251622 -0.004010959 0.0007309496 6.5545966e-05 0.0017080255 0.0025677218 0.015425333 0.011278316 -0.0070802053 0.009822869 0.0060483287 -0.015304086 0.006051257 -0.0068158647 0.010510931
strange 0.009279758 -0.0075708083 0.0035033536 0.012990494 0.013622174 0.00810014 0.013988474 0.0023200288 0.0018875852 -0.0013231536 0.013905143 0.01020402 -0.014540031 0.008682351 -0.007332643 0.0150511535 0.0023663146 -0.002429304 -0.014200708 -0.0028368353 -0.011462451 0.001889309 -0.008270435 0.007455582 0.0048511224 0.0006532449 -0.008028563 0.0077612353 -0.011326488 -0.0025249969 0.0033286994 0.002342415
creature -0.0056585628 0.004898695 -0.0017909444 -0.014187506 0.005482987 -0.011629538 -0.0067707924 -0.0040974007 -0.0008621364 0.005025357 -0.0105525 0.0011753296 -0.009520189 -0.0036047925 -0.010829434 -0.005422163 -0.0100206565 -0.0069598877 0.0043573296 0.0035367287 -0.009570375 0.014761893 0.004714591 -0.014071953 0.00011055792 0.0068949875 -0.013201647 0.0151598435 0.012197582 0.01416949 -0.008833227 -0.0065633226
caugth 0.013250563 -0.012984231 0.011289195 -0.0013492267 -0.002621156 -0.0066430843 -0.009858965 -0.0007017126 -0.010874411 0.011098487 -0.0012730099 0.00072624907 0.0050962865 0.006043256 0.014985385 0.0034049514 0.005363437 0.011406044 0.0025071152 0.0046282792 0.010479163 0.0008215668 0.0030537103 0.011602948 -0.011650595 0.0065084873 -0.0042136554 -0.0012376908 -0.0020853926 0.010760729 -0.007028615 0.0063588466
tape 0.0086928075 0.0021244327 0.0057259263 0.01074702 -0.012743447 0.0016032694 -0.006418062 0.008444149 -3.10712e-05 -0.00651946 -0.0039435467 0.005757327 -0.0010435972 -0.004224599 0.012901248 0.011302721 0.0006492226 0.0027479064 -0.0046649086 -0.0072724 -0.0014665533 -0.0074021462 -0.01410306 0.013367181 0.0103812935 -0.005947386 0.013518388 0.0038770977 0.01057592 -0.004171742 0.0049323183 0.01282021
parking 0.002473355 0.011257701 -0.0016799915 0.0023130968 0.006481612 0.015586609 0.010646481 -0.0033660505 0.013241702 -0.006207975 -0.01162491 -0.00016801163 -0.006082037 -0.01170647 0.0014153188 0.004892446 -0.0118507175 -0.012218926 0.009993143 0.0072649354 0.0016842287 -0.011564603 0.008593262 0.001602029 -0.013018523 0.00060942397 0.0029425959 -0.0032955098 0.006273951 0.0009398345 0.012519288 0.0120596485
terjemah 0.014447731 -0.008301253 -0.011707406 -0.0043538897 -0.010179234 0.004174488 0.002765101 0.015191005 0.005068829 0.013797289 -0.0011811166 -0.0063673556 -0.013652786 -0.0024757425 0.010116273 -0.0036927112 0.011211009 -0.013117388 -0.013108187 -0.0010707069 0.0098025175 0.0043069967 0.008062766 -0.008297496 -0.011837055 0.015564891 0.010044256 -0.012111768 -0.0028919326 0.001865649 0.014914236 0.0014418879
bahasa -0.0144882295 -0.007396594 -0.011433217 -0.0042030266 -0.013545739 -0.0031193886 0.004580654 0.0052847685 0.0058585005 0.013577005 0.012028705 0.013855461 -0.0129069025 0.009172209 0.012345731 0.0071241334 -0.0062109553 0.0055105905 0.009843735 0.004897943 -0.0066443547 -0.00571559 -0.010140359 -0.0030984452 0.011022516 -0.00902547 0.0014115361 0.0050645876 0.00091163267 0.011936306 -0.006594663 0.015582562
arti -0.0023843136 0.00013186928 -0.0004932579 -0.0067964955 -0.00969971 0.0051646708 0.011887671 0.01174913 0.0020714288 0.012227461 0.006846992 -0.008701666 -0.0059991367 0.004306672 0.002557191 0.008885766 -0.0032204099 0.005953111 -0.006882869 -0.005628756 -0.012222362 -0.011062533 -0.01157761 -0.008934831 0.012301049 -0.008426406 0.012007121 0.012593584 -0.0019922182 0.0005786999 0.005706828 0.009652038
aneh -0.010623121 0.0032287573 0.013206382 0.010449444 0.0054662796 0.013227751 0.0025706969 -0.00838423 -0.0070543755 -0.0012379341 -0.006393121 -0.00020098075 0.012561267 -0.0072331894 0.0059498977 0.005854621 -0.012864877 -0.009719234 0.0053441827 0.010197988 0.0034307125 0.001245116 -0.006895674 0.012583051 -0.008324971 -0.00953133 -0.002220272 -0.0025986002 0.0076884916 8.556194e-05 0.004147841 -0.008905201
perangkap 0.0017164983 0.0036915631 0.009074542 -0.012520758 -0.010687752 -0.0015485343 0.0036524213 0.011768747 -0.0023491124 0.011165969 -0.008599371 -0.003868532 0.0051589496 0.013601687 -0.011222264 0.01307651 0.015567109 0.012716415 -0.0013852849 -0.0035849116 -0.009490573 0.0052827913 0.006732539 0.00043849956 0.0040341876 -0.0035030472 -0.0029174911 0.014204865 -0.012983786 0.0011479679 0.008688657 0.006155296
rekam -0.0014191021 0.01304652 -0.014480274 0.008249685 -0.0028799325 0.007713698 -0.0019572554 -0.008363806 0.012594009 -0.010350175 -0.0014953983 0.0016875932 0.006666498 -0.001969611 -0.0147158485 -0.007992816 0.01080377 0.014433248 -0.0016428742 0.008668112 -0.008839155 0.0096772835 0.0032173845 0.014606496 -0.00041615762 -0.0071230256 0.006619405 0.007117419 -0.009155463 0.00087440107 -0.0065885508 -0.011655666
deskripsi 0.008014253 0.01412763 0.012010611 -0.008183001 0.008008986 -0.010005205 -0.013154954 0.002234435 -0.0026499312 -0.00463179 0.012111726 0.0017913654 -0.0049089054 0.0034827457 0.008149453 -0.014162226 -0.0008566226 0.01086484 -0.007474867 0.0018159043 -0.006636239 0.001620611 0.004811148 0.0041984525 -0.0123125445 -0.0010318722 0.006286544 -0.009056205 -0.008944995 -0.009569201 -0.012742699 0.0057164594
young -0.0045744507 0.013960857 -0.010028575 -0.010080326 0.006228527 0.00998996 0.014521725 -0.01158957 0.011739536 0.003575074 0.00090979616 -0.010351476 0.0004632756 0.015388263 -0.0036781228 0.0034589814 -0.0074089956 0.014457219 -0.014313757 0.009902187 -0.013891336 -0.006993743 -0.007883292 -0.0103943525 0.009710116 -0.012440833 0.001334824 0.0024285493 -0.013392587 0.005764699 -0.009678 -0.004066902
man 0.00039710966 -0.013119479 0.0067636133 0.015689852 0.012563824 -0.008848745 -0.009866914 -0.006341472 0.010356676 0.0012105642 -0.015427984 0.012972978 -0.0067032953 0.0013158198 -0.011635611 -0.011679932 -0.012591383 -0.01263175 0.002997439 -0.012558735 0.0018321546 -0.012416749 -0.011350987 0.00268102 0.0002536672 -0.009013466 -0.0034356879 0.013785862 -0.0013704932 -0.00046633583 0.0037219604 0.007970624
heading 0.0053229746 -0.010874431 0.0149004515 0.010533013 -0.0054598274 0.008051134 -0.0028596572 -0.0071106125 -0.008344611 -0.009462307 0.012409342 -0.0010771086 -0.011584076 -0.011332914 0.00019436266 0.007085765 -0.007090276 -0.0011514607 -0.015351421 0.011052846 0.0020667939 0.0055134157 -0.0019863034 -0.003969197 0.0003448458 0.0058740242 -0.010996503 -0.0040049036 -0.00803241 0.0076884916 0.0011333972 0.0063242107
towards 0.012552373 -0.01239537 0.006958054 0.0058685676 0.0002649705 0.0007319028 -0.0010646112 0.004080802 -0.010737116 -0.005518842 -0.006124725 -0.0016359009 0.0032933154 0.0129997665 0.00089111144 -0.0053799893 0.0012389678 -0.0088846 0.0019807303 -0.0034437375 0.010404157 -0.011716103 2.2507285e-05 0.0003294778 0.00039316108 0.0030710653 0.0062177386 0.007403485 0.004179937 0.0022022638 0.008351069 -0.0068573444
his 0.0012334704 0.011166501 -0.009221016 -0.012523008 -0.004548809 0.0058630668 0.0034973351 -0.009272829 -0.0054506543 0.004400881 0.010884586 0.007816299 0.0047955476 0.009674967 0.0058793607 -0.0017186877 -0.0101315 -0.011508314 -0.0044263606 -0.0012468663 0.0034178798 0.007554729 0.0084422445 0.011435579 -0.014184372 0.010537439 -0.01545246 -0.0019751631 0.012164605 0.014283551 -0.006444516 -0.0055160513
car -0.013777986 -0.003701962 -0.004260185 -0.00074296683 -0.0056579066 0.0015808849 -0.012691396 -0.0062644165 0.0109663205 0.004095448 0.005371368 -0.00499125 0.009298968 -0.0069635883 -0.004733092 0.012604617 0.0052079963 0.010961508 0.012191132 -0.008472386 -0.010053817 0.015493461 -0.014595311 -0.00835911 0.014273794 -0.009449166 0.013788555 -0.002586779 -0.006686744 -0.007002342 0.008173558 -0.005254367
realize 0.00043369582 0.0029523242 -0.012394696 0.009776977 -0.0056731864 0.015550958 -0.008202189 0.0068011354 0.007839006 -0.008819934 -0.00083307544 0.013414126 0.0058994815 -0.009846503 -0.010352335 0.0121307215 -0.0017312267 0.010095464 0.0073417253 0.009716263 -0.0033566882 -0.013831272 -0.009479035 0.00014367151 -0.011746481 -0.0028356342 0.012656237 0.013760179 0.009727206 -0.0031552857 -0.0035513418 -0.010739599
that 0.004261321 0.015390252 0.013500029 -0.0025354736 0.012891106 0.00041988364 -0.00030842 0.0047103656 0.014559906 -0.006507601 0.0144571895 0.008857428 -0.0066338503 0.015113815 0.010660106 0.0021184662 0.0015929466 0.0043580825 0.005244794 0.0079708565 0.005881616 -0.014388462 0.009977507 0.012397814 -0.0038784384 -0.0004115366 -0.014233827 0.0067377724 -0.0025970351 -0.012921062 -0.012480985 0.012503326
something 5.4453227e-05 0.006431788 -0.013137438 -0.007511437 0.00872828 0.0040283133 0.00081425335 -0.013374293 0.009294624 0.002939952 0.005927781 -0.011916867 -0.010983418 -0.01419143 0.013589614 0.0048280475 -0.011618506 1.9681687e-05 0.0084304 -0.0075906487 -0.01178003 -0.0049752234 -0.008915709 0.0020808256 0.0013603105 -0.0037100888 0.0077626165 0.007227752 0.0009234116 -0.015276104 -0.012369687 0.014462483
strangeit 0.004862444 0.014662719 -0.003041585 -0.004588694 0.006699812 0.012908967 -0.01206394 -0.0090995245 0.014973963 0.015358928 -0.015390886 -0.006746938 -0.011945979 0.014119251 0.009540129 0.0035960216 0.009116417 0.014385639 0.0064612585 0.0018580203 0.012455007 0.0043181246 0.013844781 0.0005154286 0.0045890696 -0.01541674 0.006003254 -0.011531191 0.0017524675 0.012100289 0.01445569 -0.0120671
hides -0.008165729 0.008654148 -0.008310378 0.015535409 -0.0027233118 -0.014816112 -0.0011826293 -0.009398241 0.0019747706 0.013589451 0.0091174785 -0.008941454 -0.0050502303 0.015025461 0.008074681 0.011166704 0.0018772552 -0.0027612343 0.013751624 0.012267074 0.011314937 -0.009445641 0.005015365 0.00078228983 -0.014406353 -0.009057762 0.0038318543 0.010082907 0.0110955695 0.014071568 -0.015437676 0.0016492691
under 0.0043450696 0.00842174 0.0046713604 -0.0066853245 -0.0047483537 -0.004702441 -0.0069493423 0.008662678 -0.002848775 0.0005574639 -0.01026324 0.010647527 0.006845417 0.006814876 -0.0014082426 0.005769351 -0.014624569 0.013731119 -0.0052198633 -0.0061550913 -0.012878376 -0.0013511247 -0.009922667 0.013717722 -0.008276761 0.0012322525 0.011780109 0.0055054408 0.006700159 -0.015230376 -0.0074399216 -0.005125867
takes 0.012360074 -0.0028912798 -0.00950512 -0.008163092 0.009464403 -0.0077317646 0.001845971 -0.0037650296 0.015611271 -0.0012500475 0.006026732 -0.010347933 0.01140271 -0.014069854 3.2867625e-05 -0.010925676 -0.008615903 0.0104102595 -0.012187072 -0.004626194 -0.0042159725 -0.00096382 0.0055050068 0.008018202 -0.0040903417 -0.0049479324 -0.009236353 0.0106882285 -0.010003835 -0.00983814 0.009531114 -0.013790265
smartphone -0.0033626778 -0.008647923 -0.01104815 0.0003978865 -0.0070296354 0.007966148 0.0016866993 0.00028886125 0.0049522445 -0.0064811716 0.015126442 -0.002261024 0.00033739887 -0.00423734 -0.0064270063 0.0021849333 -0.0021515007 0.0074130143 0.010637067 0.0017981592 0.006515996 -0.0028488478 -0.0045983405 0.011934245 -0.0039531053 -0.0056514116 -0.010768317 0.010385264 -0.014224666 0.008231264 -0.0070445994 -0.007434071
and -0.003063667 0.012204544 -4.054532e-06 0.0020956523 -0.008768264 0.0009953729 0.009722828 0.0027597735 -0.0070916056 -0.0061201416 0.00388291 -0.009826516 -0.011947928 0.004055857 0.013598487 -0.013759923 0.015047291 0.0073645515 -0.0127748735 -0.015401191 -0.009974208 0.001189438 -0.008835217 -0.006304704 0.0065078842 -0.006745008 -0.001374148 -0.0036460226 -0.013683398 -0.0029872404 -0.008479867 0.0123729985
starts 0.0050726393 0.012749396 0.01292787 -0.006924875 0.01542033 0.012272508 -0.0153774405 -0.001503662 0.014094446 0.00769312 -0.0032529281 0.0018137274 -0.014724817 0.00676382 0.00829661 -0.01233807 0.014158575 -0.0017324422 -0.0031228408 -0.007753421 0.006382584 -0.0048711468 0.0066587557 -0.003379884 -0.014000803 0.013918981 -0.0149210105 -0.0065510934 -0.013175225 -0.010103204 0.006009549 -0.0023704392
recording -0.0042982763 0.005310918 -0.014624864 -0.010285272 0.013537271 -0.0006991718 -0.013872577 0.009255471 0.0034842805 -0.00071345933 0.005478969 0.008654726 -0.0077230087 -0.0023952632 0.00012909225 0.00797315 0.0065877824 -0.013199728 -0.0025909725 0.0131071005 0.005915759 -0.0040534753 -0.013272769 -0.0068547474 0.0045898026 0.0070682215 -0.003836225 0.0008367603 -0.010228896 -0.0090694055 0.002845856 -0.010982744
allwhat -0.0063564116 -0.007759717 -0.0097905975 -0.004438773 0.0033944373 -0.012720902 0.01442849 -0.0042334264 -0.012540108 0.008218666 0.006380979 0.0040989206 0.0037649705 0.0071013477 0.013651714 0.0058451844 -0.010238498 0.014922654 -0.005876096 -0.009902077 0.0006578628 -0.00069758104 0.0031468368 0.0008108771 -0.0019285235 -0.015437368 0.011182385 0.012831046 -0.012884279 0.013512811 -0.01207005 0.0021749237
happened -0.0154342335 -0.010720826 -0.013212699 0.015336872 -0.0015603014 0.010842334 0.0065548723 0.008622344 0.005153862 0.01203121 -0.011401358 -0.0003744842 0.014592777 0.010295949 0.006793537 -0.0061001764 -0.012005665 0.008335626 -0.005724319 -0.011555062 -0.0035017359 -0.010208457 -0.009548493 0.0002555286 0.004896677 -0.011044555 0.0049610944 -0.0016768676 0.014827542 -0.012677302 0.010377117 0.008184225
cgi -0.012971619 -0.011663694 0.0077823456 0.0018415006 0.01320251 -0.0071482835 0.012371895 0.015481714 0.01256754 0.012123661 0.009845202 -0.0135134645 -0.005333414 -0.00060960185 -0.01403819 -0.00023068496 -0.0067251283 -0.008680164 -0.007999294 0.0040158266 0.003222269 0.002540536 0.012924512 0.002502382 0.009342319 -0.0011248969 0.011210766 0.0006162272 -0.0030656587 0.005949271 -0.0026068003 -0.0008677025
imagery 0.0035214438 0.0045014275 -0.0051990105 -0.0061695757 -0.0067883222 -0.006486046 -0.010591051 0.007862084 -0.0078082257 -0.0042387247 0.005052262 -0.004606175 0.006673663 0.012379659 0.0071636993 -0.009985261 0.0115663195 0.013429167 0.012601638 -0.013274375 0.0029270244 0.0033890782 -0.014903484 -0.0038286431 0.008764596 -0.010908294 0.0056319367 -0.0022439482 -0.010355594 0.015536852 -0.011110545 -0.01474999
kenal 0.011399344 -0.01012965 0.0063469093 -0.00088925747 0.0010162115 -0.006973152 0.013585665 0.003209292 -0.0007991687 -0.0029363325 0.00040145847 0.0066686943 0.011016501 0.0050704377 -0.015339534 -0.0029965648 -0.009998286 -0.0134457955 -0.015373967 -0.010501143 0.0100084795 0.0075419093 0.00093982293 0.0046129287 -0.00078981766 -0.013070713 0.009601887 0.014842399 0.0013281886 0.011882409 -0.0037918955 -0.0030932433
citra -0.0073572774 0.008426663 -0.01179994 -0.0058697765 -0.0063528423 0.008158781 0.013367624 -0.008831391 0.0017550497 -0.0011466087 0.011136173 0.012045398 -0.008602909 0.010041695 0.00793765 0.014167542 0.01328025 -0.0061841984 0.0051740585 -0.014857465 0.015337201 0.00574426 -0.015044107 0.009322804 -0.0041865474 0.005314011 -0.0074379235 -0.015497438 0.013427903 -0.0043786126 -0.0062726163 -0.010847174
komputer -0.003065178 -0.015303036 0.0035176899 -0.009183683 -0.0037370732 -0.004913808 -0.00029765346 0.01389287 0.014830365 0.012487074 -0.012574197 -0.011116373 -0.014375571 -0.0033856502 0.009451412 0.00022185617 -0.0123483855 -0.009094133 -0.0051930514 0.0047893613 -0.0036585103 -0.006453765 -0.008940177 0.011722555 -0.0042091766 0.015038155 -0.013475252 0.01154386 -0.012049637 0.009804412 0.0074946433 -0.00389837
grafik -0.004996254 0.011277988 0.003560942 0.00718392 0.008115633 0.0019740437 0.001865383 0.003646168 -0.0028305477 -0.0024876832 -0.009197552 0.006438599 0.00788681 0.014760983 -0.00917486 -0.002408845 0.0014779192 0.0049691857 -0.007229166 -0.014690053 -0.0036808236 0.012898077 0.0019120788 0.012158736 0.015569244 0.0004805644 -0.0074589024 -0.013684117 -0.012901241 -0.002825629 0.0018808434 -0.0033190276
efek -0.014003257 -0.0009412373 0.009346909 0.008065819 0.014812038 0.00597504 -0.0013042144 0.0008985691 0.015426855 0.0030106339 -0.00886028 -0.0060510677 0.0019195322 -0.010247949 -0.012730159 0.003179274 -0.0061012525 0.014846038 0.0103422655 -0.014603218 0.0103448685 -0.008001212 0.00012095487 -0.0027513688 -0.0005834163 0.015442805 -0.012861339 -0.015112876 -0.008520007 -0.0018992277 -0.00760933 0.012315023
spesial 0.015544602 0.0040875627 0.007999467 -0.005857183 -0.0016341853 0.0021923706 -0.011433492 -0.012730004 0.009570378 0.0028718503 0.009792028 0.0045741014 -0.0073930514 0.0069415723 -0.0068811197 -0.0009604698 0.012647317 0.01452143 0.0032442461 -0.0036843421 0.0019652038 -0.008603369 -0.0066577937 0.004659093 0.0026899923 -0.00054983166 0.00599463 0.011151422 0.0060843993 0.004582729 -0.011048978 -0.0001272681
film -0.0027052085 -0.008711605 0.0065401155 -0.011766628 0.002931737 -0.004776587 0.003794016 -0.012581774 -0.0050951173 -0.011887007 0.008534238 -0.00033667608 -0.008417704 -0.009982988 0.006247686 -0.0114972405 0.0043385467 0.01072603 -0.0039258967 -0.008112934 -0.014220931 0.01028105 0.0030491105 0.011491256 -0.008593219 -0.015145087 0.010687004 -0.00058193004 -0.0027701305 -0.01374047 -0.006640124 -0.0040091244
televisi 0.0012686126 -0.003527467 -0.0069001378 0.0055332216 0.008116939 0.0076626698 0.007405634 -0.007381614 -0.0065740375 0.00868199 -0.011686193 0.009752851 -0.006544298 -0.014731337 -0.015551352 0.011505708 -0.007457217 0.0014122629 0.0049111214 -0.008776116 -0.0038322143 0.003908688 0.010319142 0.0076737576 -0.0054729898 -0.014191226 -0.007880978 -0.004789989 -0.014443072 -0.014950152 0.008443779 0.015537962
iklan -0.015150869 0.0091608465 -0.00974705 -0.00035035535 -0.007624062 0.0066625476 -0.0069348845 -0.009653729 0.011652215 0.0051874924 -0.00065762963 -0.008982042 0.013848116 0.012165906 0.002106077 -0.007445018 -0.007110466 -0.009316792 -0.00963553 0.008741298 -0.0032485628 0.0105094975 0.0018243643 -0.008560082 0.00021285938 -0.006205341 0.008374713 0.015084216 -0.012716549 -0.0057756435 0.0023516577 -0.0033606025
cetak -0.009130696 -0.014572317 -0.014011111 0.014028783 -0.0033814807 -0.014375575 0.010079172 0.0063762777 0.0071174856 0.007139007 -0.011020872 -0.011793058 0.010847927 0.012254705 -0.010286333 0.003398364 -0.008112361 -0.0010416561 0.0011584706 -0.0007150944 0.011362578 -0.0054377597 0.0070097377 -0.0046186512 0.009621164 0.0038901803 0.003960961 -0.0055744294 0.0022357563 -0.011929237 0.0063326294 0.0090166675
pasang -0.006595332 0.0012884043 0.0073575797 0.011188652 0.010372125 -0.0055069565 0.008557005 -0.009045351 -0.00089001993 0.01539738 -0.0063613825 0.005781215 -0.009224748 -0.0019561157 0.0126074 0.011481713 -0.005667862 0.007671448 -0.005733801 0.0076527726 -0.00033189438 0.008171632 0.0022837766 -0.0037548633 0.012032405 0.015173972 -0.002865043 -0.0036376016 -0.004509743 -0.014430612 0.0054230466 -0.011101535
gambar 0.011954679 0.011418872 0.0063930443 0.009482886 0.0047197114 -0.012906653 -0.002569674 -0.0083056735 0.005692638 0.014098029 0.011191368 0.0032052868 0.0035747308 0.01436402 -0.015472298 -0.007905364 -0.002698869 0.0035556096 -0.0004633794 0.007452489 0.0015602348 -0.011121267 -0.0069159404 0.0048035486 -0.0017476458 0.0031095557 0.0148949055 -0.006063489 -0.008722046 -0.0045229592 0.002870988 0.00928362
facebooknya 0.014508802 -0.0065660835 0.0060748872 0.0060786633 0.00972458 -0.0051643336 -0.004147588 0.01215913 -0.001960188 0.0055164127 0.003712359 -0.0052440725 0.0096226465 0.009358818 0.0022414015 -0.012755566 0.003815831 0.0150788585 0.0044045416 0.0045311754 0.007880397 -0.008112079 0.000743626 -0.010078078 -0.00088992843 0.0076298304 -0.0077343117 -0.0064800703 -0.007702141 -0.0022973611 -0.0063149855 0.0133275455
sisi 0.0013093089 -0.011560531 -0.015045676 0.006024648 0.0139708575 0.008634974 0.00041205913 0.014824159 0.009240537 -0.0065706507 -0.008086296 0.0010613821 -0.012920427 0.0017321984 0.004424274 0.005265748 0.010264257 0.0030248952 -0.009052245 0.0017738048 -0.013936588 0.0018782857 0.014476138 -0.005924562 0.010996654 0.008358636 -0.012008483 0.014490431 0.0038963612 0.005376537 0.005882167 -0.008297312
kiri 0.010231386 -0.007105874 0.00016447963 0.014596678 -0.013051746 0.0013310945 -0.0049905637 0.00776434 -0.00094587915 0.008304984 -0.0073342114 -0.0081312405 -0.0023006087 -0.0010355177 0.013281745 0.013078019 -0.0018649223 -0.011092553 0.006606458 -0.008840771 0.0074779643 -0.006643379 0.0064305007 0.008865072 -0.012691395 -0.0026292324 0.008117011 -0.0025511289 -0.0061123446 -0.00094400236 0.013802712 0.009782892
mantan -0.015111636 -0.008097723 -0.014061783 -0.003906278 0.0032084784 0.009788837 0.001898127 0.001206408 0.0031556247 -0.01046149 0.008003883 -0.008282401 -0.003483208 0.011841802 -0.005992898 -0.006129319 0.00578305 0.009712298 0.0056125247 0.011004064 0.0019000709 0.011895488 -0.0033878733 -0.0013296029 -0.0043244185 0.007267606 0.008919318 -0.0007032526 -0.007438326 -0.00054440065 -0.014798181 -0.008306522
main 0.009085851 -0.014569487 0.0031967866 0.0077967793 -0.005979694 -0.014390322 0.0107024135 0.0010133386 0.0007414214 -0.0111524705 -0.010726646 0.015507826 -0.0017479387 0.009061048 0.0055975076 0.008948772 0.00020289655 0.0026609087 0.015515649 -0.01561301 -0.0076477546 -0.012805077 0.0042893346 0.0072632646 -0.009114338 -0.012896866 0.00020214032 0.012988163 -0.015553474 -0.015069281 0.010741147 0.002231069
sepak 0.006659638 0.0050353087 0.011010026 -0.0048504383 0.007749964 -0.012815268 0.0006723145 -0.007992499 -0.0128767565 0.0010591763 0.0025712193 -0.0017168595 0.005322779 9.4672025e-05 0.0039150133 0.01127587 0.0051554427 -0.009917212 0.015419358 0.0043574926 -0.0009416615 0.0037913253 0.0054151914 0.0032593573 -0.001287478 -0.014833026 0.012332439 -0.0012847012 -0.009573045 0.004886816 -0.012101813 0.0027216275
bola -0.009356272 0.001942907 0.0038405766 0.0045876997 0.0070970324 -0.010125916 0.005540183 -0.0075403173 0.010753675 -0.012013394 0.0044687446 0.008879541 0.007939831 0.0017174128 -0.005816641 0.0059703565 0.0018912337 -0.0051532728 -0.0068228957 0.010137838 -0.0060691945 -0.008676725 0.008579898 0.0015660593 0.014036227 0.0129639665 -0.003468299 0.015066502 0.008197953 0.012013466 -0.01540332 -0.008438149
klub -0.011276301 -0.010502794 -0.011482287 -0.00819228 0.0057201623 0.0031162428 0.006438601 0.005051446 0.0011551271 -0.0053327205 -0.012373504 0.0143934935 0.0015579703 0.0062416727 -0.013251137 -0.0035260962 -0.01064488 -0.0041584964 -0.0070648193 -0.014089123 -0.008669718 -0.004914936 -0.013737024 0.0019195008 0.005754837 0.0005184328 0.01540614 -0.012737497 -0.009647683 -0.008298872 -0.007901451 0.0029028782
real 0.0026029896 0.0039206143 -0.009939945 0.00049583986 -0.0015677507 0.0051757274 -0.00903525 0.010660667 -0.0067869327 -0.01108417 0.001699673 -0.0027368458 0.00013479702 -0.0010054577 0.015317407 -0.005128673 0.0068675177 -0.0004769083 -0.0060560843 0.0018616088 0.011582171 0.0027611956 0.0018342299 -0.0027091573 -0.008650728 0.011302394 0.0043204133 0.0033816367 0.0031705515 0.0026320873 -0.01228287 -0.008903671
madrid 0.00020809207 0.009072978 0.0007284453 -0.002265555 0.009767563 0.008088478 0.0052629183 0.011961986 0.004542569 0.012937795 0.013925153 -0.0036568076 0.0136595145 -0.001926609 0.0040323776 -0.0020199658 -0.01556244 0.009383465 -0.01060069 -0.00014715976 -6.894006e-05 0.001786143 -0.010531967 0.0006309773 0.011981934 -0.0059999847 0.012832579 0.001851997 -0.0011911277 0.005915435 0.009873929 0.013181172
cristiano 0.0036323012 -0.007359277 -0.012496067 0.005972575 0.013054602 -0.0046878047 0.011903539 0.0058983476 0.010486757 0.014377772 -0.0049452283 0.013923693 -0.006731918 0.015520679 0.0056469557 -0.015167135 -0.006172536 -0.011228932 -0.00054258655 0.015072422 -0.013045688 -0.0077893473 -0.015246462 0.011453228 -0.009009144 -0.001113761 0.013535045 -0.0020737695 0.0005046031 -0.00037593461 0.0007885954 -0.013282825
ronaldo 0.005883137 -0.0048899148 0.0040737553 0.011105813 0.014062851 -0.0033523745 0.0018503047 0.005877195 0.008501745 -0.012924657 0.0041524717 -0.0068484987 -0.0016441381 -0.013672762 -0.0135602 -0.009368667 -0.0022114683 0.005830818 -0.008038297 0.010069372 -0.014472983 -0.008713262 0.013075228 0.0023165145 0.006095933 -0.008832346 0.00011158494 0.0064610993 -0.007084092 0.013606985 0.011516335 0.011042531
pler -0.0039733336 -0.0021210774 -0.01047159 0.009072142 -0.0103408 -0.012450073 -0.0155043835 0.01083711 -0.0009343177 -0.015015888 -0.006669295 -0.011028394 -0.0155920135 -0.007088046 0.0022980345 0.0039230525 -0.0057225493 0.012851521 -0.012893276 0.0043226588 0.0060075587 -0.0061348407 0.0044165393 0.008896212 -0.002284989 -0.0012669641 -0.013090911 -0.011681734 -0.011249664 -0.0013825721 0.012511135 -0.012683444
laveran -0.004630094 0.001776879 0.0007240031 0.009234385 -0.001278204 -0.009856302 -0.0101705175 0.015371861 -0.008079314 0.008982176 -0.007873656 0.0074723163 0.0005448092 0.0005280769 -0.0075826272 -0.004890175 0.0019483367 0.010794304 0.0054914174 -0.0127042215 0.012932492 -0.0023484821 -0.014506117 0.0014619151 -0.0055826535 -0.010430149 -0.008891139 -0.0051488574 -0.014499649 -0.013733112 -0.00086756784 -0.010459578
ferreira -0.0019683694 -0.0044824234 0.008979691 0.00690966 0.0035774861 -0.0022190022 -0.0020878743 0.006985963 -0.01005911 0.008087167 -0.012993272 -0.0054739555 0.008148673 -0.011887801 -0.01525835 -0.014709957 0.0024026842 0.0074364664 -0.005412797 -0.014333277 0.004345113 0.001571802 -0.0047001187 -0.012471717 -0.006427811 0.007031399 -0.0077642133 -0.006693111 -0.015334388 0.0028770012 0.0061320355 -0.0039288336
pepe -0.0011662098 -0.00092000247 -0.0039662723 0.015435702 -0.0055810916 -0.0012142279 0.010373771 -0.008496487 -0.0014117913 7.735171e-05 -0.00520809 0.00433362 -0.014075042 0.010529474 0.010203178 0.0020513828 -6.155431e-05 -0.008430899 -0.0012506758 0.011521678 0.010270251 0.013925262 -0.008296847 -0.014336569 -0.008478651 -0.015510317 -0.0041517885 -0.013552139 2.7278527e-05 -0.014911473 0.0013512146 0.012276706
topi -0.002485364 -0.0028519433 0.008908827 0.0025191647 -0.011262642 -0.0054387846 -0.0033057616 0.01021309 0.0030025 -0.0010209162 -0.008793955 -0.007001141 -0.005961006 0.015228136 -0.007578457 0.00080893264 0.008014516 0.011216391 0.014323292 -0.0037900086 -0.013511938 -0.014453651 -0.013539713 -0.012237848 -0.01287051 0.008055573 -0.004140376 0.0006107769 0.013227586 0.0055028545 0.0069377874 -0.014628396
baret -0.0037369393 0.0074242475 0.0015225601 -0.005560012 -0.013348115 0.009698754 -0.010794837 0.0022849662 0.0034619719 0.0028351885 0.0030257716 -0.010621427 0.0012819483 0.0056591155 0.012536428 -9.974099e-05 0.01502013 -0.014558992 0.010011093 0.006838767 0.0066210977 -0.0002284488 -0.008703373 0.012982982 -0.0037304615 -0.014174241 0.0012489413 -0.008932307 0.0008430959 0.002539203 0.0085605355 -0.0053867702
warna 0.009527542 -0.015011822 -0.01328921 -0.010450382 -0.00835386 0.0048149084 -0.002123237 -0.0040798136 -0.008616314 0.011391746 0.010907891 -0.0017576175 0.003936503 0.014918094 -0.015443399 0.0053232242 -0.0017629244 -0.007320965 0.008611977 -0.0026157536 0.0032734633 -0.011617773 -0.0029235755 -0.007472293 0.0028735069 0.0069691218 -0.0044289683 -0.010544729 -0.0027718137 -0.0012435934 0.0037608733 0.0031150114
merah 0.015199632 0.002744936 -0.012077766 -0.0034769427 -0.015142791 -0.004000356 0.005035536 -0.012102668 0.0030890168 -0.015013581 0.0033744362 0.000599479 -0.0037863124 0.009410684 0.011147213 -0.0155757535 -0.0004124679 0.009803905 0.0016619063 0.010136997 -0.011173685 0.008327724 -0.0061965464 -0.004758071 0.0068476787 -0.010736752 -0.011977838 0.012094406 -0.0024932353 0.014343291 0.015667146 0.012066877
kacamata 0.00910721 0.00869275 0.0117146075 0.0038332248 -0.0050727464 -0.001323943 -0.006355276 -0.001068281 -0.00046353176 0.0044719935 0.0122093465 -0.012606307 0.011571548 -0.0035995524 -0.01204448 0.008532017 0.0076062735 0.01511471 0.001117702 0.0053448784 0.008273972 -0.0072715753 -0.0071634683 -0.012175609 0.015613072 -0.003989884 -0.010950542 -0.010117366 -0.012308263 0.0029132308 -0.002355904 0.009461917
hitam -0.014133891 -0.014233008 0.014177974 0.009149526 0.0027180405 -0.013128666 -0.00957871 0.012813905 -0.0034443908 -0.015310056 -0.009608101 -0.012179696 0.0073462613 0.0032666724 -0.010592847 0.010307728 0.0078500435 -0.0115114935 -0.011291868 -0.0020845484 -0.003308464 -0.014490416 -0.010300134 0.00304916 -0.0014348174 -0.006767886 0.011862184 0.014316411 -0.015225132 0.004995513 0.011985569 -0.011077133
pegang 0.0030428732 0.01266227 0.010977911 0.015337358 -0.012296887 0.009687538 0.0043056924 -0.012071578 0.0028267486 0.01476067 0.0062358254 0.011241722 -0.0065185945 0.009435911 0.004227143 -0.014143091 -0.011086286 0.0014755261 -0.0033374322 0.0132117905 0.0032102 0.0036935383 0.012280259 -0.003276928 0.0054196194 -0.0077262176 -0.0060300697 0.00415853 -0.012028707 0.012751768 0.014149241 0.013325123
tongkat -0.015327287 0.011877602 0.003109289 -0.009190281 -0.0019596373 -0.0056698713 -0.011552467 0.010569612 0.014313632 0.014497117 0.008166507 -0.0068426332 0.002220895 0.012008372 0.010153094 -0.004705148 0.009200955 -0.014358675 -0.004943141 -0.010988927 -0.01205552 -0.0061116237 -0.0067122085 -0.011495247 -0.003972359 0.012676751 0.013078332 0.0035636334 -0.010379848 0.004245605 0.009561712 -0.011492187
komando 0.0036874453 0.0023295276 -0.01446096 0.0007759998 -0.002122731 -0.010532068 0.012512648 -0.0025345716 -0.014990374 0.0018960368 -0.01185567 -0.0065073404 -0.013144604 0.006876504 -0.009816083 -0.0094213905 0.001920595 -0.012982126 -0.003793523 0.007039317 0.012587451 -0.013251622 0.0034749953 -0.00082025834 -0.006612452 -0.0030725854 -0.013663921 0.015475618 -0.0048658974 -0.005490938 -0.007874483 -5.4344884e-05
bendera 0.013758942 0.008073594 -0.009536725 0.010636762 -0.009611107 0.011446774 0.012055794 0.001761378 0.010686693 -0.008717781 0.0032815095 -0.01131636 0.005446731 0.0032311291 -0.013909862 -0.0048715645 0.0018146357 0.0060578575 -0.013255577 -0.0012680964 0.0022416713 -0.014660275 0.00090427435 -0.007509952 0.0009474969 0.011451336 0.0019733221 -0.0036972975 0.0053662183 0.010963139 0.01466357 0.0035898401
lambang 0.0016870648 0.015113384 0.002400386 0.0008260076 0.005628104 -0.012323923 -0.014477339 0.014775242 0.012397447 0.0051680664 0.005056094 -0.007113451 -0.0020698109 0.0064425 -0.0011140925 0.009271095 0.014785111 0.009849362 0.004461423 -0.0074671134 -0.008893488 -0.004446084 -0.013797307 0.0033545454 -0.014008395 -0.009435291 0.0047554676 0.012182757 0.011306621 0.012199431 0.0035533234 -0.008837488
polri -0.012283043 -0.009253942 -0.0071467226 -0.009171279 -0.0006049435 0.0029455428 0.0005399396 0.008368169 0.003987995 -0.008273526 0.0048027737 -0.005336314 0.0066376356 -0.013474477 -0.01041831 -0.014153567 0.007556019 0.010649652 0.012869521 0.011295522 -0.0075366674 0.0028978381 0.009375963 -0.0153835565 0.014678733 0.014110301 -0.0073227687 -0.005458102 0.0020135785 0.015294909 0.007163478 0.004496506
hahahaha 0.002032488 0.0060457555 0.008639188 0.0110656 0.00017494091 0.009407206 0.0017731196 0.005089665 -0.0018436286 -0.012655568 0.010066673 0.010918861 0.005181226 -0.014993766 -0.0018545091 0.006594729 -0.007155078 0.0059889033 -0.01299876 0.013639317 -0.011748006 0.008486145 -0.0153961945 0.0061188405 -0.015122081 0.003970501 -0.015337 -0.009067766 -0.00012465547 0.007075802 0.0070115025 0.014218676
mesin 0.0041702115 -0.0036965979 0.0025218485 0.0054543302 -0.004024056 0.003771363 0.0019693403 0.0008568866 -0.002688936 -0.0074491375 0.013928164 0.0034163722 -0.013400057 -0.0013587197 -0.00024136454 -0.006589282 -0.014029098 0.008124352 -0.0091408575 -0.0010828497 -0.0034489133 -0.012186711 0.0076745288 -0.012541517 0.0043978286 -0.0055808676 -0.0040128096 -0.009042548 0.014511065 0.0042073824 -0.0075252936 0.011308753
meme -0.0005114356 0.005204785 0.0007059003 0.015037516 0.0016153845 0.008946245 0.0039802464 -0.002358456 -0.015136502 -0.0058004255 0.009111972 -0.011837463 -0.012102451 -0.012473072 -0.0111825485 -0.013566035 -0.0026077274 0.0035464973 0.005530448 0.0032840464 0.0075834133 0.014492531 -0.012349155 0.004275864 -0.012966984 -0.00062982057 0.010448689 0.013599299 -0.009674854 0.0044530183 0.008440679 -0.005477543
ramai -0.010927298 -0.0020132554 0.0014212012 -0.0056653433 -0.01198039 -0.007876426 -0.0012340177 0.0057648104 0.014022258 -0.011987076 -0.012414688 0.013767764 -0.0042643836 -0.0011575713 -0.009371274 -0.006024128 -0.012572285 0.011635111 0.008450361 -0.006519409 -0.009635836 -0.0052963 -0.014303216 0.0053622955 0.0018117635 0.0032085641 -0.009918169 0.014850878 -0.014871655 0.012523177 0.0146003775 -0.005722368
warganet 0.010078805 -0.0074870004 0.005932009 -0.0011623953 -0.010986261 0.002742199 -0.006894307 0.010256195 0.005494372 0.005102515 0.014485303 0.01326531 0.013728732 0.0121075865 -0.0031460524 -0.00418002 -0.004339587 0.0012606555 0.001022537 -0.011595552 0.005053184 -0.010013177 0.008979309 -0.009274919 0.0018979753 0.009290546 -0.015156446 0.012730091 0.00015297833 -0.015256613 0.013563422 0.00589344
barcelona 0.010467756 0.011393753 -0.0052094646 0.008763155 0.013993007 0.0009862582 -0.005360473 -0.012439401 -0.0064338646 0.0014942187 -0.00740237 0.010318797 -0.0058226273 0.0055825207 0.0020720775 -0.010334475 0.006271059 0.008731995 -0.008780516 0.006077958 0.011216462 -0.0029193095 -0.014936782 0.0073667336 0.0053172265 0.012039513 0.01381722 -0.0036453803 0.0062877764 -0.005952255 0.004869779 0.0077992463
gagal -0.0072101126 -0.013759161 -0.011567073 -0.015446977 0.0037933672 -0.0041731726 -0.0001175394 0.009842843 -0.0016728999 -0.0051814145 -0.013273578 -0.0044777696 0.014052316 -0.006778681 0.0037510046 0.0005168428 0.008873096 0.002741963 -0.0036328947 0.0148082655 -0.013907574 -0.0052072434 -0.014416208 -0.0074945823 0.010830194 -0.012456027 -0.012136822 0.012832808 -0.0010485809 -0.008427915 0.0009733748 0.009618833
lolos -0.0076531162 0.013714459 -0.0010853132 0.011531829 -0.013762771 0.013883347 -0.0098155765 0.0051188534 0.0061059403 -0.014178096 0.008917095 -0.0045191394 0.0063688275 0.008307676 -0.011414176 -0.0070112706 -0.013870549 -0.0036489903 -0.0036556488 0.012975746 0.004369904 0.0068925773 -0.0061260033 -0.010904935 -0.0072765113 -0.0091435425 -0.0028202953 -0.009413198 0.006027984 -0.013794512 -0.015177996 0.0044228365
liga -0.014535729 -0.010139938 -0.0039144387 0.015241695 0.0016799635 -0.009543542 -0.0065721106 0.0044979304 -0.001021455 -0.007485179 -0.013631192 0.009350017 -0.0101524955 -0.0045669577 0.012318979 1.4942418e-05 0.004003316 -0.012896894 0.00058904046 -0.013578115 -0.009191028 -0.005418062 -0.014548703 -0.009785597 0.00040275187 -0.008308601 -0.0127307065 0.0055334726 0.011914317 -0.0069972547 -0.008044508 0.013587203
champion 0.0023348448 -0.01375954 0.009631032 0.00047085574 0.0130797485 0.005164587 -0.00039669155 0.004030274 -0.010067589 0.01466193 0.009477243 0.0067664497 0.0025433383 0.011822453 -0.009722708 -0.002447835 -0.0034279863 0.014030465 -0.0014828395 0.010775941 -0.00461463 -0.0008401271 -0.013355964 -0.008938057 -0.00453188 0.007138387 0.0150203295 0.008051777 0.0012339146 0.004343228 -0.010382384 0.013547237
kalah 0.0022343958 0.009732732 0.013249366 0.00966501 -0.012561408 0.0077101854 0.014562561 -0.0056007197 -0.0106524145 -0.011379903 0.0074705626 0.0008820281 -0.011266163 -0.0076479367 0.010646793 -0.008471944 0.013839622 -0.0046643307 0.00038457 0.00040362385 -0.010844446 -0.011589241 0.0007676004 0.015131268 -0.010141057 -0.006255959 0.010403282 0.007876638 -0.004062063 0.008534095 -0.00014126848 -0.0031717757
agregat 0.006614314 0.0033585439 -0.006469121 0.0012259927 0.00715077 -0.0068832785 -0.0034580098 0.002360829 0.0012746447 -0.0018667905 0.006692675 0.0043690354 -0.00028934987 -0.0036791586 0.014922681 0.008943452 -0.011461642 -0.011116156 0.009623461 -0.0022360657 -0.007956205 -0.0038049915 0.0018220106 -0.0033487126 0.004528699 0.015173003 -7.773758e-05 0.0022959663 0.004743836 0.0044773365 0.0054569314 0.00021313078
atletico -0.009136205 0.004816759 -0.005734467 0.009599963 0.010023173 -0.0075794333 -0.00978669 0.0026950475 0.0035857616 -0.0058754194 -0.015048742 0.0063443496 -0.015413717 0.008760879 0.013531883 0.00656141 -0.0135188345 -0.0065654307 -0.01227216 -0.015276677 0.0014375626 -0.011281151 -0.0049971403 -0.014569341 -0.0037506525 0.0069653 -0.008629223 0.015214932 -0.005940576 -0.013722638 0.0044759684 -0.0069883447
tayang 0.0013974056 0.0110671995 0.010848051 -0.009920014 0.0150921345 0.003894638 -0.0016230008 0.0051022964 0.00798495 -0.009497972 -0.01450034 -0.009216636 -0.0041239527 -0.01219325 -0.011675988 -0.0056543476 0.007435225 0.009588441 0.005737187 0.0022398378 -0.011254503 0.0060584093 -0.0009119311 -0.0036035192 -0.010624668 0.0009208722 0.011602027 0.0059609856 0.004058261 -0.0071551194 -0.009516611 -0.00995603
daring 0.008528846 -0.014796433 0.006608785 -0.005575521 -0.013777253 -0.0071968595 -0.0030655302 -0.011500076 0.0008952319 -0.008963653 0.00950735 -0.01074665 0.00044857408 -0.0055268607 -0.014128831 0.011097312 0.011833233 -0.008349283 0.005630349 -0.010873018 -0.012083002 -0.011242982 -0.013001758 0.012818759 0.010510902 -0.001721573 0.011073159 0.014951574 -0.013712968 -0.008603889 0.0058223805 0.00838497
brilionet 0.012372852 0.013105661 -0.003651077 -0.0018669907 0.01090464 -0.00023541559 -0.0074511324 0.012436749 -0.0005572512 0.0055393786 -0.003955357 -0.0030701833 0.010621093 0.013127776 -0.010787866 -0.005149413 0.014430687 0.0011671326 0.010765353 0.0032741912 -0.013893085 -0.011534638 0.0029510555 0.008606109 0.0050489246 0.0070231217 -0.011159223 -0.009987636 -0.015213822 -0.0009584011 0.0032011296 -0.008427287
sunting -0.00024230823 -0.012743184 -0.014299269 0.009226856 0.01341709 -0.0045990767 -0.011681248 0.0021293883 -0.0035173374 0.013395827 0.0039545163 0.013880089 0.010940639 -0.0022296458 -0.014989722 -0.011313987 -0.011683906 -0.013170688 0.012045579 0.004099399 -0.0070637367 -0.00079256884 -0.012846631 0.012102011 -0.010488041 0.002668732 0.0010467728 0.0134916445 0.013014546 0.0030527713 -0.0047901454 -0.013060619
joko -0.009543757 0.00090408616 -0.013146995 -0.0039136484 0.010344831 -0.011101985 0.014371161 -0.0024557377 -0.013780834 -0.0056183143 -0.0068209586 0.008422591 0.00094242353 -0.0012047788 -0.00026647828 -0.005330753 -0.0017627003 0.012422226 0.01383745 0.009319978 -0.012793004 -0.009442271 -0.014067205 0.00027217506 -0.009763507 0.001694654 -0.010280253 -0.006094345 -0.0033947856 -0.014437625 -0.011292012 0.009094378
widodo 0.014673804 0.013931826 0.011861737 -0.0026213706 -0.008800394 0.0068854964 0.013729109 0.0017354254 -0.00871116 0.0060983077 -0.009239844 -0.010972538 -0.012332202 0.01026626 -0.006388739 -0.001030995 -0.0026697342 0.010802818 -0.0073771905 -0.003476373 -7.942325e-05 0.0007710715 -0.0075234836 0.013514559 0.0015650325 0.015348306 0.0016619257 0.0133384755 -0.00029379615 0.00068268453 0.009601245 -0.0052139126
jokowi -0.0040419716 0.010629095 -0.0018301115 -0.0070428103 0.012166664 0.008498539 0.0009848927 0.0026743053 0.014140261 0.012590371 -0.009574302 0.006450559 0.0019672378 -0.0014577603 -0.011423211 -0.014376901 -0.011551086 0.008502991 0.0016347751 0.009748809 0.008576166 -0.008381993 0.006087218 0.010126864 0.006625952 -0.00072534825 0.0111409435 0.0016884893 -0.013547823 0.0014101868 0.00039089654 -0.0018015547
kapolri -0.010440674 -0.015550684 0.0026017595 0.011374738 0.0048608887 -0.0004962867 0.005842531 -0.0065751034 0.0047064563 -0.013169484 0.013675316 0.00458448 0.013842473 -0.01367661 0.012084795 -0.012688257 0.00012209677 0.0012038636 -0.009986061 0.0055351327 -0.008289018 0.0020164535 9.9202676e-05 -0.0057929815 0.0017641922 0.011394173 -0.0038494908 -0.009026159 -0.0060602077 -0.012619096 0.011773898 0.00589196
periode 0.005889584 -0.0011188565 -0.0054084538 0.0013163537 0.01068065 0.007368325 0.011751805 -0.005958922 -0.011095842 0.01469974 0.012300539 0.008602996 0.0008049147 -0.0008970039 -0.0019574445 0.0016153046 0.008222737 0.010590655 -0.008902725 -0.011132239 0.0067601223 0.012437134 -0.012508161 0.009023019 0.00785388 0.007048567 -0.0071508456 -0.002505654 0.003488862 0.0018179005 -0.003243426 0.009341078
bambang 0.0038855677 0.006575541 0.014421189 0.014196767 -0.0117585035 0.0073372643 -0.0068641244 -0.01046428 -0.01088183 8.672954e-05 0.006285018 0.015304671 -0.00065039797 -0.015367704 0.010485854 -0.007408348 0.009442305 -0.0038355135 0.0033660126 -0.005512091 -0.005763792 -0.004081267 -0.0108062 0.014306664 -0.0016491717 -0.0059795803 0.012892088 0.0018825743 -0.007555077 0.0039492487 -0.014154812 0.009351752
hendarso 0.005471299 -0.00795452 0.015567781 -0.014545973 6.95319e-06 0.006404106 -0.013868846 0.009481069 0.0020355692 0.0074790786 -0.0074971654 -0.0076026525 0.00719004 0.0047101956 -0.00349871 -0.013017168 0.010541092 -0.013527187 0.0011636416 0.0024059908 0.00911104 0.007516063 -0.0033388021 0.0043919734 0.004351746 0.0013707081 -0.0073169987 0.005884114 0.0013383703 0.0048215254 -0.008234053 -0.012347042
danur -0.0014762189 0.009400936 -0.013592183 -0.004856295 0.0013760687 -0.015060056 0.007323991 0.0014066759 0.00091238547 -0.0017308291 0.003501155 -0.012604139 -0.0048961677 -0.012813351 -0.005544392 -0.013261228 -0.004475652 -0.0060023256 -0.00030409294 2.9258108e-05 0.008956112 -0.014307204 0.010739684 -0.004540927 -0.00026990785 -0.0059685097 -0.006425619 0.011987227 0.011291428 0.007701635 -0.008111922 -0.010771099
frist -2.2218715e-05 0.0114419 -0.014194172 -0.004898837 -0.013823602 0.010773161 4.387986e-05 0.0005676993 0.0012317993 0.01029153 0.0015486946 0.0010311306 -0.0056617656 -0.012846205 -0.014833405 0.005886818 -0.0046627526 -0.0070854235 0.014884246 0.003918073 0.0043262183 -0.0074481666 -0.0049637766 -0.010145732 0.015029809 -0.01004435 -0.013729294 0.0009802437 -0.00867721 0.014507246 -0.015133041 -0.002000046
kategori -0.000982376 0.0048545175 0.0039628167 0.011005888 0.008060486 0.006342772 0.0044081174 0.012110122 0.009128361 -0.0036010207 -0.0006282265 0.011701101 -0.008299298 -0.015127191 -0.010266427 -0.0042485297 0.0020484247 -0.0016413542 0.0034673854 0.009710974 0.008780622 -0.0020819134 0.0005001221 0.0155342715 -0.010738257 0.010935723 0.00060120557 -0.011499557 -0.0043958835 -0.007108052 -0.002010502 0.0031715694
manipulated -0.001205536 -0.005166424 0.01406247 -0.009733367 0.0066025713 0.009888351 0.013967473 0.0010347597 0.011939989 -0.002028867 -0.011307983 0.004915927 0.0020480994 -0.015099214 -0.011838286 -0.0040644966 0.011395422 -0.011576513 0.0028822795 -0.010985958 -0.01315756 0.013710526 -0.0008754845 -0.011204642 0.0034360867 -0.013458439 0.0040535843 0.009524742 -0.0033661993 -0.00024396568 -0.01112696 -0.0124958735
content -0.00017716277 -0.007739224 -0.0016100524 0.003990653 0.0039703143 0.0030379444 -0.009112285 -0.0064335684 -0.00672853 -0.00449886 -0.012753343 -0.0054753353 0.01317769 0.006069779 0.0027333978 0.014153055 -0.0067472644 0.007102419 -0.0023747627 -0.011362188 0.013489998 -0.0114728995 0.0122146 0.014248534 0.0102323275 0.0029692566 -0.007991972 0.0017207944 0.012629289 0.0059319567 0.0107571585 -0.01102875
manipulasi 0.009120327 -0.00017082479 -0.0034490528 -0.0022368995 -0.0021343622 0.009121721 -0.0042788372 0.0154269235 -0.008473405 -0.0103067355 -0.00016975382 -0.0042484906 0.008046942 0.012103312 0.009361572 0.015015898 0.005555305 0.0030754232 -0.0067120697 -0.00519371 -0.0011807908 -0.0074630314 0.010043144 -0.004286539 0.006302533 0.010216244 -0.00043115078 0.010230069 0.0106488345 -0.00014896452 0.013865599 -0.0009846344
definisi 0.008446955 -0.011719941 0.000567729 0.0025752503 -0.010203262 -0.012088022 -0.009987381 0.010279183 -0.0047653434 0.0065817926 -0.01230009 0.0025346074 0.01553207 -0.0091865 0.007200596 -0.008088187 0.002841072 0.0036165658 -0.014322956 0.012595209 0.013912231 -0.013739127 0.00050920056 -0.0034644627 0.0025425216 -0.0034976674 -0.015471563 0.014576034 0.0075352485 -0.01119972 -0.010103206 0.0032022246
tipu -0.0017508396 -0.0041023204 0.003416909 0.00761965 0.012001507 -0.014535333 0.012201364 0.0030648466 -0.013875664 0.010777925 -0.004495509 0.011763432 0.008264472 0.014570527 -0.008648996 -0.011016775 -0.013415905 -0.012666309 0.015476608 0.006608921 -0.014541206 -0.013872092 0.011961579 0.0059397006 0.010911223 -0.014782816 -0.011261437 0.0034554624 -0.0028941485 0.0033198886 0.0023486721 0.0099341655
india 0.015450698 0.0038591106 -0.014916622 0.008891669 0.013441722 -0.0020307088 -0.008192835 -0.004935657 0.0066650286 -0.0050877896 -0.00022042761 -0.0049479804 0.00695298 -0.009406555 -0.0049225255 -0.0019661183 0.014610704 -0.006404682 0.013781174 0.0014546845 0.012578161 0.0035697208 0.010904631 -0.0034713626 0.0066019963 -0.012345106 0.009992941 -0.007824615 0.0038998548 0.0016221253 0.008290645 -0.0020031063
gencar 0.012330514 0.003839061 -0.002062334 0.0043075783 -0.0048554046 -0.014982731 -0.008427702 0.002905602 -0.008858041 0.011378556 -0.0025345965 0.0011706349 -0.0016279012 0.013961379 -0.014743974 0.0022334016 -0.011072679 0.014138185 0.008728875 0.0148974145 0.014328265 0.008181811 0.011705271 -0.00035086574 -0.0149706 -0.009394352 -0.009503699 -0.0151995635 -0.012293501 -0.0076932875 0.013059441 -0.011893891
hina 0.010143112 0.0117751835 0.010275846 -0.0071597663 0.0112485 0.0025387781 0.008820405 0.010852146 -0.003072783 0.005634571 -0.014010024 0.0026394366 0.009290466 0.012748081 0.0012591779 0.006800922 -0.0020417173 0.012892806 -0.0053813662 0.0010868913 0.0001799374 -0.0031072681 -0.010001008 0.0037978406 0.012835594 0.006167545 -0.008991973 -0.015083535 -0.0077899927 0.013511017 -0.010143975 -0.013310187
islamadzan 0.0031716768 0.006607911 0.011166741 0.00072054873 -0.00094980636 0.012141118 -0.008133631 0.013332794 -0.004461316 -0.0057337536 0.009382118 -0.0023840412 0.011931831 0.015177565 0.0030305511 0.0040518674 0.012907052 0.002761732 -0.0077207056 -0.007847573 0.013147212 -0.010744397 0.006840523 0.0076018465 -0.0073591615 -0.009197752 -0.010242293 -0.0010082325 0.0027142614 -0.0015973982 0.013514642 -0.01528341
celawanita 0.00029071368 -0.003466749 -0.0032703446 0.0069083697 0.0153911775 0.005597619 0.009986788 0.0031411638 -0.0065685995 0.013040356 -0.0038813725 -0.01133534 -0.012058006 0.0066926917 0.0062326672 0.011232821 -0.0115456 0.0041782088 -0.008119693 -0.012813355 0.014004561 -0.009717397 0.0036269312 0.0066984966 -0.0057369354 -0.008744331 -0.011534493 0.006065028 -0.0031497905 0.012707609 0.0054356134 0.012548794
kerudung -0.0041623455 0.0077310433 -0.007211703 0.008543831 0.010224289 -0.013975745 -0.007674316 0.0097165955 0.0149795255 0.015156018 -0.014414199 -0.013681044 -0.0003744759 -0.012040995 -0.0014375723 -0.010188161 -0.013907577 0.010127961 0.0061071506 -0.010764206 -0.011857113 0.013976459 0.01238186 0.0016793231 -0.011045357 0.008152018 -0.0052326918 -0.002243784 0.005037902 -0.011720029 0.011623897 -0.010931222
lempari -0.0017755813 0.008084633 -0.0022151477 -0.0026603818 -0.0027749909 0.00040117727 -0.008110485 -0.004931008 0.0013932505 0.013210962 -0.00863912 0.006294114 0.009885171 -0.002639465 -0.0060868845 -0.015309395 -0.004459838 -0.013339486 -0.010314032 0.006319848 0.007396203 0.002503616 0.0076913545 0.012651611 0.007415932 -0.0104165515 -0.0032231037 -0.00915731 0.004764066 -0.012682642 -0.003447832 0.010861372
batu 0.005894051 -0.0047106137 0.009558989 0.0010878068 -0.0145237595 0.013410587 -0.0043657892 -0.01502077 -0.010434809 -0.015121994 0.015314356 -0.002817222 -0.005459199 -0.0123009775 0.0022341164 0.014398532 0.0031582331 0.005633475 0.0061345166 -0.014464192 -0.009743744 0.00034820338 -0.00986589 -0.014123603 0.007150971 0.0003866814 -0.01139121 -0.009252763 -0.008875136 -0.0068523344 -7.719001e-05 0.013654335
bilang 0.013896962 -0.004611744 -0.00989338 -0.00827363 -0.0068833777 0.014491643 -0.0059128087 -0.003088844 -0.011873199 0.0045727445 -0.008810288 -0.011905872 -0.0037249755 0.010461799 -0.0018947031 0.0033914961 0.0108844 0.006371143 -0.013661131 0.0003215178 0.008874796 -0.014934071 -0.00974649 0.014437973 0.0066083996 0.0132800285 -0.0038481057 -0.008871082 0.002684179 0.011809344 0.009091984 -0.0015978133
panas -0.011634786 -0.008342036 -0.0037823068 0.0015856388 -0.006927164 0.011472935 -0.006683368 -0.004720966 0.0017800917 -0.010742783 -0.010367814 0.006622041 -0.006656146 -0.01257547 -0.009742783 0.0147506595 -0.012958075 0.008123559 -0.0018923578 -0.00018595792 0.007960675 0.01341482 0.011159 0.015462145 -0.0019597227 0.012433811 -0.006222406 0.0069961403 -0.002580647 0.008841214 -0.011507308 -0.009485256
dsb 0.011953302 0.0019068044 0.01275511 -0.01019655 -0.003164268 -0.0049956716 -0.0115086865 0.0010681102 -0.0016256286 0.0014885094 -0.0060007526 0.009294081 0.008106786 -0.0030935423 0.0065658865 -0.011234293 0.00047129704 -0.010539093 0.00096973433 0.0051933466 -0.002823561 0.015142715 0.011493001 -0.009901027 -0.010578052 -0.011891175 0.014653984 -0.009156935 -0.013683356 0.0020277624 -0.007702682 -0.004095632
men -0.00076296745 -0.005891125 0.0002703255 0.009864496 0.013677849 0.014009962 0.006541656 -0.0042923805 -0.0083455425 0.010495871 0.008246177 0.009308728 -0.0023605677 -0.012530202 -0.010643427 -0.012443565 -0.013959662 -0.0037547222 -0.0070074974 -0.00127066 -0.003225996 -0.012000951 -0.012992828 0.002394033 -0.003881954 0.004827528 0.009510905 -0.014951799 0.012422425 0.00994611 -0.01348979 0.0071255798
tuhan 0.014595305 -0.0074650557 -0.0020317093 0.0078354925 -0.013250019 0.013426489 0.013584718 -0.012927478 0.001950706 -0.00088415 0.00709634 -0.013507396 0.014544626 -0.011282093 0.0024499856 -0.009849799 -0.012117786 -0.014669758 -0.006949629 0.008476234 0.007844276 0.009579437 0.007530572 0.0019980029 -0.002214589 -0.0152593395 -0.013590215 0.007645865 -0.015203529 -0.012285441 0.011227888 0.0069566327
sapi -0.005677989 -0.013544913 -0.003808236 0.010619725 0.0043028626 -0.0046372116 0.01216285 -0.0014839058 0.0066653523 -0.004564715 0.0043427944 -0.007997615 0.01016019 0.01016352 0.005442282 -0.0061699576 0.007820309 0.009817328 0.008048047 -0.012928926 0.00056097656 0.010102821 -0.0015169203 -0.014846938 -0.013065176 -0.008549847 0.009389342 0.009512086 0.0053183166 0.00031051325 0.007977715 0.0019720485
azab -0.0037677805 0.01036694 -0.007683423 0.0046549197 0.01468353 -0.0005002064 -0.001616328 -0.011658832 -0.0021042856 0.0019226589 -0.00024366722 0.0047284123 0.0060678045 -0.008453228 -0.0044791363 0.005268683 -0.008906516 -0.0011121689 0.0068925787 -0.012873521 0.0029775165 0.013189158 0.014623453 0.0011254136 0.0062352093 0.01484382 -0.0063204607 0.010016991 0.001952472 -0.00080022955 -0.0058617406 0.011581483
pedih -0.0025770445 0.00023816024 -0.00082870066 0.009642181 0.015090097 0.0011153779 0.006335185 -0.014874609 0.0037534477 -0.010634036 0.0016249456 -0.00011265288 0.012154831 0.008787513 -0.004416198 0.0059753913 0.0019792425 0.011120512 0.0022796837 0.0049417103 0.015541156 -0.011724545 0.0082947025 -0.010464302 -0.006986714 0.0040784394 0.006729619 -0.008268882 -0.0008254048 -0.0029178094 -0.012643631 -0.012392444
dunia 0.00810417 0.0019363415 -0.010083916 0.002210274 -0.005808201 0.008778507 -0.012859957 -0.004873418 -0.008862457 -0.0015649218 0.013742412 -0.0037095463 0.009949974 -0.001354175 -0.00069755194 0.00596644 0.0049066213 -0.0053860224 0.00900201 -0.0029973795 -9.9075296e-05 -0.0022945472 -0.0025871191 0.0112326015 -0.0012201674 -0.003051936 -0.013037598 0.009949884 -0.01105714 -0.011707651 -0.0069612083 0.013668725
silah -0.009447684 -0.012997409 -0.0042853947 -0.015330542 0.014936255 -0.006212817 -0.004046244 0.011495208 -0.014643299 0.014238841 -0.0036427644 0.0078858165 -0.015484029 0.0029466473 0.00818225 -0.008605665 0.0036349474 -0.013904656 -0.005098042 0.0024497502 0.00013939136 -0.0093388 0.00011756772 0.0020543244 -0.0013823127 0.007693528 0.0050050663 0.0149998395 0.0077239512 0.009246275 -0.00726479 -0.009685864
nikmat -0.008904298 0.004394027 -0.005026446 0.009361133 0.004864678 0.006875466 -0.012645517 0.005562599 0.01323722 -0.014471899 0.004348646 0.012221786 -0.013695584 0.00056403497 0.013171027 -0.007959494 0.014278465 0.011659035 0.0063659395 0.010425868 0.0006978733 0.0018570047 0.0020104528 -0.009827528 -0.0060273767 0.0024441741 0.005874114 0.0005367393 -0.00415217 -0.009278235 0.012260728 -0.0040826052
